svm_type c_svc
kernel_type rbf
gamma 0.00129032
nr_class 5
total_sv 755
rho -0.612384 0.608631 0.916395 -0.747585 0.928414 1.01284 -2.47706 1.33613 -4.12975 -1.86129
label 1 2 3 4 5
nr_sv 110 89 224 177 155
SV
0 11.67490642517862 9.094997399359523 0 150:0.22353 151:0.88627 152:1 153:1 154:1 155:0.77647 156:0.44706 157:0.11373 176:0.11373 177:0.88627 178:1 179:1 180:0.88627 181:0.66667 182:0.88627 183:1 184:1 185:1 186:0.66667 187:0.11373 203:0.11373 204:1 205:1 206:0.66667 212:0.22353 213:0.88627 214:1 215:0.88627 216:0.11373 231:0.88627 232:1 233:0.66667 242:0.66667 243:1 244:0.88627 258:0.55294 259:1 260:0.44706 271:0.66667 272:1 273:0.55294 285:0.11373 286:1 287:0.77647 300:0.55294 301:1 302:0.33725 313:0.77647 314:1 315:0.22353 329:1 330:0.77647 340:0.11373 341:1 342:0.66667 357:0.66667 358:1 359:0.11373 368:0.66667 369:1 370:0.11373 385:0.33725 386:1 387:0.44706 396:1 397:1 414:1 415:0.66667 424:1 425:0.88627 426:0.33725 442:1 443:0.66667 452:0.55294 453:1 454:1 455:0.88627 456:0.55294 457:0.11373 470:1 471:0.66667 481:0.33725 482:1 483:1 484:0.66667 485:0.22353 498:1 499:0.66667 510:0.55294 511:1 512:0.44706 525:0.11373 526:1 527:0.66667 539:0.88627 540:1 553:0.33725 554:1 555:0.33725 567:0.44706 568:1 569:0.55294 581:0.88627 582:1 596:0.55294 597:1 598:0.44706 608:0.22353 609:1 610:0.55294 625:0.88627 626:1 627:0.66667 635:0.11373 636:0.88627 637:0.88627 638:0.11373 654:0.77647 655:1 656:1 657:0.44706 658:0.33725 659:0.33725 660:0.33725 661:0.55294 662:0.88627 663:1 664:0.88627 665:0.11373 683:0.22353 684:0.66667 685:0.77647 686:1 687:1 688:1 689:1 690:0.77647 691:0.44706 
0 0 2.655401819188832 0 148:0.090196 149:0.47059 150:0.61176 151:0.87843 152:0.99608 153:0.99608 154:0.76078 155:0.43922 156:0.16078 175:0.34118 176:0.89804 177:0.99608 178:0.99216 179:0.99216 180:0.99216 181:0.99216 182:0.99608 183:0.99216 184:0.9451 185:0.57647 186:0.019608 202:0.48235 203:0.96863 204:0.99216 205:0.80392 206:0.36078 207:0.30588 208:0.30588 209:0.30588 210:0.39608 211:0.82745 212:0.99216 213:0.99216 214:0.75686 215:0.12157 229:0.27843 230:0.96863 231:0.96863 232:0.54118 233:0.031373 239:0.035294 240:0.34118 241:0.8902 242:0.99216 243:0.85882 244:0.082353 257:0.75294 258:0.99216 259:0.6902 269:0.18431 270:0.90196 271:0.99608 272:0.61961 273:0.11765 284:0.23137 285:0.99608 286:0.99608 287:0.37255 298:0.29804 299:1 300:0.99608 301:0.60784 302:0.019608 312:0.21569 313:0.98039 314:0.99216 315:0.4 327:0.49412 328:0.99216 329:0.99216 330:0.10588 341:0.57647 342:0.99216 343:0.45882 355:0.070588 356:0.88627 357:0.99216 358:0.45882 369:0.066667 370:0.76863 371:0.95294 372:0.85882 373:0.44706 384:0.63529 385:0.99216 386:0.80784 398:0.3098 399:0.92941 400:0.22745 412:0.46275 413:0.99216 414:0.95686 415:0.17647 426:0.6902 427:0.75294 440:0.37647 441:0.99608 442:0.89804 443:0.090196 454:0.68627 455:0.9098 456:0.37255 468:0.078431 469:0.99216 470:0.83529 482:0.68627 483:0.99216 484:0.46275 496:0.078431 497:0.99216 498:0.83529 510:0.48627 511:0.99216 512:0.31373 524:0.28627 525:0.99216 526:0.83529 538:0.18824 539:0.96078 540:0.90196 541:0.14902 552:0.46275 553:0.99216 554:0.6902 567:0.59608 568:0.99608 569:1 570:0.23922 579:0.054902 580:0.87843 581:0.99608 582:0.45882 595:0.023529 596:0.76863 597:0.99608 598:0.92157 599:0.45882 600:0.035294 607:0.58431 608:0.99216 609:0.96863 610:0.12549 624:0.11765 625:0.60784 626:0.99216 627:0.99216 628:0.82745 629:0.68627 630:0.3098 631:0.28627 632:0.098039 633:0.36863 634:0.68627 635:0.99608 636:0.96863 637:0.32941 653:0.019608 654:0.4 655:0.76863 656:0.99216 657:0.99216 658:0.99608 659:0.98431 660:0.94118 661:0.99216 662:0.99216 663:0.95686 664:0.33333 683:0.070588 684:0.28627 685:0.60784 686:0.60784 687:0.78431 688:0.99216 689:0.78431 690:0.60784 691:0.17647 
3.352346724024438 10.79916745511773 0 3.890880012890527 236:0.082353 237:0.50196 238:0.73333 239:0.73333 240:0.73333 241:0.73333 242:0.73333 243:0.73333 244:0.50588 261:0.011765 262:0.21961 263:0.70196 264:0.9098 265:0.71765 266:0.48627 267:0.48627 268:0.48627 269:0.48627 270:0.48627 271:0.60784 272:0.89412 273:0.91765 274:0.5451 288:0.21176 289:0.52549 290:0.99216 291:0.71765 292:0.23137 300:0.027451 301:0.65098 302:0.98039 303:0.37255 314:0.023529 315:0.5098 316:0.96471 317:0.92157 318:0.24314 319:0.015686 329:0.035294 330:0.6549 331:0.96863 332:0.18431 341:0.047059 342:0.68627 343:0.99216 344:0.99216 345:0.38824 358:0.043137 359:0.99216 360:0.68627 369:0.53333 370:0.99216 371:0.91765 372:0.26667 373:0.015686 386:0.0078431 387:0.69804 388:0.99216 397:0.99608 398:0.76863 399:0.015686 414:0.043137 415:0.99216 416:0.9098 425:1 426:0.62745 442:0.043137 443:0.99216 444:0.58431 453:0.76471 454:0.98824 455:0.10588 470:0.50588 471:0.95686 472:0.15686 481:0.45098 482:0.99216 483:0.80392 484:0.094118 497:0.094118 498:0.8902 499:0.33725 509:0.011765 510:0.058824 511:0.9098 512:0.95294 513:0.51765 514:0.090196 524:0.047059 525:0.81961 526:0.35294 539:0.15686 540:0.41569 541:0.96863 542:0.91373 543:0.71373 544:0.37255 550:0.039216 551:0.43529 552:0.7098 553:0.41569 554:0.043137 569:0.30196 570:0.50588 571:0.86275 572:0.9098 573:0.89412 574:0.89412 575:0.89412 576:0.66275 577:0.79608 578:0.86275 579:0.78824 580:0.29804 600:0.082353 601:0.33333 602:0.72941 603:0.40784 604:0.72157 605:0.58824 606:0.15294 
0 22.30256133860241 8.433596619257747 8.907567039993857 265:0.090196 266:0.38431 267:0.38431 268:0.38431 269:0.38431 288:0.23137 289:0.55294 290:0.87843 291:0.99608 292:0.99608 293:1 294:0.99608 295:0.99608 296:0.99608 297:0.99608 298:1 299:0.78824 300:0.070588 313:0.027451 314:0.49412 315:0.83922 316:0.99608 317:0.98431 318:0.91373 319:0.8549 320:0.52941 321:0.44706 322:0.47843 323:0.41569 324:0.50196 325:0.52941 326:0.93333 327:0.99216 328:0.88627 329:0.57647 330:0.019608 341:0.57255 342:0.99216 343:0.87059 344:0.4549 345:0.28235 354:0.070588 355:0.50196 356:0.99216 357:0.99216 358:0.49412 368:0.07451 369:0.96863 370:0.64314 371:0.13333 383:0.0078431 384:0.19216 385:0.95294 386:0.96078 396:0.22745 397:0.99216 398:0.07451 412:0.12157 413:0.9451 414:0.99216 424:0.078431 425:0.92157 426:0.058824 439:0.019608 440:0.61176 441:0.99608 442:0.90588 451:0.3451 452:0.054902 453:0.10588 466:0.05098 467:0.58824 468:0.99216 469:0.8902 470:0.18039 479:0.49804 480:0.85098 481:0.32941 493:0.23922 494:0.87843 495:0.99216 496:0.89412 497:0.16863 507:0.019608 508:0.07451 509:0.31765 510:0.61176 511:0.91765 512:0.92157 513:0.59216 514:0.53333 515:0.53333 516:0.53333 517:0.53725 518:0.53333 519:0.65098 520:0.91765 521:0.97255 522:0.99608 523:0.6549 524:0.05098 538:0.035294 539:0.22745 540:0.22745 541:0.54902 542:0.87451 543:0.99216 544:0.99216 545:0.90588 546:0.60784 547:0.60784 548:0.75686 549:0.46275 550:0.22745 551:0.035294 
4.146079807729873 3.758560288392733 7.139644148049027 0 150:0.23529 151:0.23137 152:0.23137 153:0.23137 154:0.23137 155:0.23529 156:0.23137 157:0.23137 158:0.019608 175:0.17255 176:0.46275 177:0.75686 178:0.99608 179:0.99608 180:0.94118 181:0.91765 182:0.91765 183:0.92157 184:0.98431 185:0.99608 186:0.79608 187:0.46275 188:0.062745 202:0.17255 203:0.90196 204:0.99608 205:0.87451 206:0.6902 207:0.36471 208:0.094118 212:0.25882 213:0.42353 214:0.73333 215:0.99608 216:0.92941 217:0.3451 230:0.81569 231:0.99608 232:0.79216 233:0.13333 242:0.011765 243:0.22353 244:0.87843 245:0.98824 246:0.39216 247:0.011765 258:0.84314 259:0.99608 260:0.07451 272:0.054902 273:0.72941 274:0.99608 275:0.22353 286:0.61176 287:0.99608 288:0.78824 289:0.23137 301:0.062745 302:0.92941 303:0.84314 314:0.13725 315:0.99608 316:0.99608 317:0.63922 330:0.36863 331:0.97255 332:0.22353 342:0.46667 343:0.99608 344:0.7098 345:0.92549 346:0.14902 358:0.094118 359:0.9451 360:0.60784 369:0.12549 370:0.92549 371:0.76863 372:0.035294 373:0.058824 387:0.92157 388:0.96471 397:0.52549 398:0.96471 399:0.18824 415:0.77255 416:0.99608 425:0.8549 426:0.53333 443:0.53725 444:0.99608 453:0.99608 454:0.35686 471:0.53725 472:0.99608 481:0.99608 482:0.27059 499:0.53725 500:0.99608 509:0.99608 510:0.59216 526:0.05098 527:0.90588 528:0.57647 537:0.85098 538:0.97647 539:0.23529 553:0.062745 554:0.83922 555:0.93333 556:0.14118 565:0.32941 566:0.96471 567:0.87843 568:0.13725 580:0.054902 581:0.73333 582:0.99608 583:0.60784 594:0.30588 595:0.82353 596:0.91373 597:0.54902 598:0.21176 606:0.015686 607:0.37647 608:0.73333 609:0.98824 610:0.65098 611:0.098039 623:0.094118 624:0.65882 625:0.80392 626:0.92941 627:0.51373 628:0.3098 629:0.26275 631:0.3098 632:0.3098 633:0.57255 634:0.73725 635:0.99608 636:0.80784 637:0.4902 653:0.031373 654:0.31373 655:0.78431 656:0.83922 657:0.97255 658:0.92157 659:1 660:0.98039 661:0.83922 662:0.78039 663:0.45882 664:0.031373 685:0.21176 686:0.22745 687:0.23137 688:0.21176 
1.53240559928376 0 0 0 152:0.16078 153:0.64314 154:0.99608 155:1 156:0.99608 157:0.99608 158:0.43529 159:0.054902 179:0.27451 180:0.9451 181:0.98039 182:0.61961 183:0.29804 184:0.47843 185:0.64706 186:0.98431 187:0.72549 206:0.07451 207:0.88627 208:0.77647 209:0.25882 214:0.34118 215:0.92157 233:0.062745 234:0.64314 235:0.94902 236:0.16863 243:0.55686 244:0.56078 261:0.52941 262:0.99608 263:0.47451 271:0.090196 272:0.76471 288:0.15686 289:0.99608 290:0.44706 300:1 301:0.15294 316:0.1451 317:0.91373 328:0.99608 329:0.15294 356:0.99608 357:0.15294 372:0.027451 373:0.59608 374:0.92157 375:0.40784 383:0.35686 384:0.95686 385:0.12941 400:0.30196 401:0.84314 402:0.54902 403:0.76471 410:0.062745 411:0.61569 412:0.61569 428:0.53725 429:0.37647 431:0.14902 438:0.098039 439:0.90588 440:0.29804 456:0.53333 457:0.54902 466:0.15686 467:0.81176 484:0.53333 485:0.60784 494:0.41961 495:0.49412 512:0.53333 513:0.46275 521:0.05098 522:0.72941 523:0.19216 540:0.53333 541:0.90196 549:0.3098 550:0.83529 568:0.15686 569:0.99608 570:0.38824 576:0.019608 577:0.76078 578:0.45882 596:0.023529 597:0.61961 598:0.90196 599:0.12941 603:0.019608 604:0.58824 605:0.84706 606:0.098039 625:0.26667 626:0.99608 627:0.70196 628:0.094118 631:0.49804 632:0.96863 633:0.32941 654:0.72941 655:0.99216 656:0.81961 657:0.53333 658:0.53333 659:0.96471 660:0.35686 682:0.054902 683:0.54902 684:0.87451 685:0.99216 686:0.84314 687:0.52157 688:0.035294 
0 25.69877837548139 0 0 211:0.46667 212:0.7451 213:0.7451 214:0.7451 215:0.7451 216:0.37647 217:0.039216 236:0.082353 237:0.7098 238:0.81569 239:0.98039 240:0.99608 241:0.99608 242:0.99608 243:0.99608 244:0.99608 245:0.6549 246:0.023529 262:0.043137 263:0.49804 264:0.91373 265:0.99608 266:0.99608 267:0.99608 268:0.99608 269:0.75294 270:0.57647 271:0.88235 272:0.99608 273:0.99608 274:0.26275 288:0.011765 289:0.035294 290:0.75294 291:0.99608 292:0.99216 293:0.97647 294:0.58039 295:0.50588 296:0.05098 297:0.019608 299:0.15686 300:0.90196 301:0.99608 302:0.76078 315:0.035294 316:0.47843 317:0.99608 318:0.99608 319:0.86275 320:0.33725 327:0.25882 328:0.99608 329:0.99608 330:0.99608 341:0.035294 342:0.12157 343:0.64314 344:0.99608 345:0.90588 346:0.37255 347:0.13725 355:0.098039 356:0.86667 357:0.99608 358:0.99608 368:0.1451 369:0.61176 370:0.91373 371:0.75294 372:0.76471 373:0.17255 383:0.062745 384:0.83922 385:0.99608 386:0.8902 395:0.19608 396:0.9098 397:0.99608 398:0.63922 399:0.043137 411:0.4 412:0.99608 413:0.99608 414:0.39216 423:0.92941 424:0.99608 425:0.81961 426:0.043137 437:0.047059 438:0.67843 439:0.95294 440:0.99608 441:0.85098 442:0.043137 451:0.79608 452:0.99608 453:0.98039 454:0.56078 455:0.2902 464:0.43922 465:0.72549 466:0.99608 467:0.99608 468:0.85098 469:0.33725 479:0.29412 480:0.95686 481:0.99608 482:0.99608 483:0.99216 484:0.37255 485:0.49804 486:0.2549 487:0.047059 488:0.047059 489:0.047059 490:0.44314 491:0.71765 492:0.99608 493:0.99608 494:0.98824 495:0.83137 496:0.1098 508:0.058824 509:0.51373 510:0.91373 511:0.99608 512:0.99608 513:0.99608 514:0.99608 515:0.99608 516:1 517:0.99608 518:0.99608 519:0.99608 520:0.99608 521:0.98431 522:0.50196 538:0.098039 539:0.34902 540:0.34902 541:0.57255 542:0.81176 543:0.92941 544:0.99608 545:0.99608 546:0.92941 547:0.81176 548:0.35686 549:0.30588 571:0.17647 572:0.27843 573:0.27843 574:0.17647 
0.320324904315584 8.671397205652953 0 0 130:0.24314 131:0.42745 132:0.62745 133:0.84706 134:0.95686 135:0.39608 156:0.13333 157:0.76471 158:0.98824 159:0.99608 160:0.99608 161:0.99608 162:0.99608 163:0.62353 182:0.039216 183:0.55686 184:0.9451 185:0.99608 186:0.99608 187:0.96471 188:0.95686 189:0.99216 190:0.99608 191:0.62353 209:0.11373 210:0.99608 211:0.99608 212:0.99608 213:0.90588 214:0.49412 215:0.062745 217:0.96078 218:0.99608 219:0.51373 236:0.38039 237:0.94902 238:0.99608 239:0.96863 240:0.37255 241:0.05098 244:0.3098 245:0.99216 246:0.97255 247:0.21176 263:0.37647 264:0.96863 265:0.99608 266:0.82745 267:0.19608 271:0.035294 272:0.76471 273:0.99608 274:0.8549 290:0.23922 291:0.98431 292:0.99608 293:0.60784 299:0.33725 300:0.99608 301:0.99608 302:0.39216 317:0.047059 318:0.86275 319:0.99608 320:0.7098 321:0.10588 327:0.52549 328:0.99608 329:0.86275 330:0.058824 344:0.090196 345:0.6549 346:0.99608 347:0.88627 348:0.12941 354:0.27059 355:0.90196 356:0.99608 357:0.27843 372:0.46275 373:0.99608 374:0.99608 375:0.36471 381:0.11373 382:0.71765 383:0.99608 384:0.87059 385:0.023529 399:0.39608 400:0.99608 401:0.99608 402:0.56863 408:0.011765 409:0.61569 410:1 411:0.98039 412:0.21961 426:0.090196 427:0.95686 428:0.99608 429:0.87451 430:0.035294 436:0.14902 437:0.99608 438:0.96863 439:0.37255 453:0.0078431 454:0.56471 455:0.99608 456:0.98824 457:0.25882 463:0.090196 464:0.86667 465:0.99608 466:0.64314 481:0.14902 482:0.99608 483:0.99608 484:0.56078 490:0.17647 491:0.95686 492:0.99608 493:0.90588 494:0.05098 508:0.05098 509:0.8549 510:0.99608 511:0.82745 512:0.058824 517:0.070588 518:0.80784 519:0.99608 520:0.90588 521:0.17255 536:0.42745 537:0.99608 538:0.99608 539:0.4 544:0.28627 545:0.87843 546:0.99608 547:0.90196 548:0.19216 564:0.62745 565:0.99608 566:0.99608 567:0.4549 570:0.23922 571:0.6902 572:0.95294 573:0.99608 574:0.6902 575:0.14118 592:0.62745 593:0.99608 594:0.99608 595:0.98431 596:0.96078 597:0.96078 598:0.98431 599:0.99608 600:0.99608 601:0.6902 602:0.015686 620:0.42353 621:0.98431 622:0.99608 623:0.99608 624:0.99608 625:0.99608 626:0.99608 627:0.66667 628:0.33725 629:0.039216 649:0.55686 650:0.62353 651:0.73333 652:0.92549 653:0.62353 654:0.36471 655:0.011765 
1.065948719710233 14.9165936661675 0 18.7973502144294 131:0.082353 132:0.6902 133:0.6902 134:0.23922 158:0.28235 159:0.9451 160:0.99216 161:0.99216 162:0.96078 163:0.59216 184:0.12549 185:0.77647 186:0.95294 187:0.99608 188:0.99216 189:0.99216 190:0.99216 191:0.63529 211:0.27059 212:0.83529 213:0.99216 214:0.99216 215:0.81961 216:0.23529 217:0.88235 218:0.99216 219:0.63529 238:0.33333 239:0.97255 240:0.99216 241:0.99216 242:0.48627 244:0.078431 245:0.90196 246:0.99216 247:0.63529 264:0.14902 265:0.89412 266:1 267:0.99608 268:0.95294 269:0.40784 272:0.5451 273:0.99608 274:0.99608 275:0.41176 291:0.36471 292:0.74902 293:0.99216 294:0.99608 295:0.66275 296:0.23529 299:0.16471 300:0.96078 301:0.99216 302:0.72157 303:0.019608 317:0.1451 318:0.57255 319:0.97255 320:0.99216 321:0.99216 322:0.62353 323:0.086275 327:0.63922 328:0.99216 329:0.91765 330:0.15686 344:0.15686 345:0.71765 346:0.99216 347:0.99216 348:0.80784 349:0.43922 354:0.3098 355:0.99608 356:0.99216 357:0.67059 371:0.027451 372:0.7098 373:0.99608 374:0.99216 375:0.81176 376:0.23922 381:0.18039 382:0.9098 383:0.99608 384:0.78824 385:0.090196 399:0.40392 400:0.99608 401:1 402:0.75294 403:0.05098 408:0.1451 409:0.84314 410:0.99608 411:0.91765 412:0.17647 426:0.16078 427:0.90196 428:0.99216 429:0.75294 430:0.054902 435:0.047059 436:0.85882 437:0.99216 438:0.91373 439:0.17647 453:0.031373 454:0.69412 455:0.99216 456:0.94118 457:0.18039 462:0.24706 463:0.85882 464:0.99216 465:0.92941 466:0.41961 480:0.023529 481:0.52157 482:0.99216 483:0.96078 484:0.23922 488:0.0078431 489:0.2 490:0.99608 491:0.99216 492:0.90588 493:0.19608 508:0.28627 509:0.99216 510:0.99216 511:0.66275 516:0.2 517:0.99216 518:0.99608 519:0.91373 520:0.19216 536:0.51373 537:0.99608 538:0.99608 539:0.21176 542:0.062745 543:0.76863 544:0.99608 545:0.99608 546:0.91765 547:0.17647 564:0.63922 565:0.99216 566:0.85882 567:0.015686 568:0.078431 569:0.67059 570:0.93725 571:0.99216 572:0.99216 573:0.7098 574:0.05098 592:0.33725 593:0.99216 594:0.97255 595:0.85098 596:0.90196 597:0.99608 598:0.99216 599:0.96863 600:0.41961 601:0.043137 620:0.31373 621:0.99216 622:0.99216 623:0.99216 624:0.99216 625:0.94902 626:0.38824 627:0.18039 648:0.28627 649:0.96863 650:0.99216 651:0.68627 652:0.28235 653:0.10196 
3.351693371602533 57.15134664492266 7.446724236830876 0 160:0.05098 161:0.36863 162:0.27059 186:0.3451 187:0.72157 188:0.98431 189:0.99608 190:0.99608 212:0.047059 213:0.4902 214:0.95294 215:0.99608 216:0.99608 217:0.99608 218:0.99608 238:0.019608 239:0.31765 240:0.78431 241:0.99608 242:0.97255 243:0.60784 244:0.71373 245:0.99608 246:0.85882 265:0.023529 266:0.4 267:0.92157 268:0.99608 269:0.93333 270:0.21961 271:0.035294 272:0.88235 273:0.99608 274:0.41961 292:0.16471 293:0.66275 294:0.99608 295:0.96863 296:0.57255 297:0.23137 299:0.43137 300:0.99608 301:0.99608 302:0.086275 318:0.019608 319:0.56863 320:0.96471 321:0.99608 322:0.90196 323:0.30588 326:0.039216 327:0.88235 328:0.99608 329:0.69804 330:0.0039216 345:0.019608 346:0.49412 347:0.99608 348:0.99608 349:0.9098 350:0.30196 354:0.58431 355:0.99608 356:0.99608 357:0.2 372:0.019608 373:0.59608 374:0.99608 375:0.99608 376:0.63137 377:0.13333 381:0.18824 382:0.96078 383:0.99608 384:0.58039 385:0.0078431 400:0.65882 401:0.99608 402:0.92941 403:0.21176 404:0.027451 409:0.7451 410:0.99608 411:0.85098 412:0.070588 426:0.039216 427:0.67451 428:0.96863 429:0.97255 430:0.57255 435:0.047059 436:0.58039 437:0.98431 438:0.99608 439:0.25882 454:0.43529 455:0.99608 456:0.97647 457:0.35686 462:0.2549 463:0.8 464:0.99608 465:0.99608 466:0.4 467:0.0078431 479:0.094118 480:0.68235 481:0.80784 482:0.97255 483:0.99608 484:0.70588 485:0.24706 486:0.21569 487:0.2 488:0.30196 489:0.63137 490:0.95294 491:0.99608 492:0.99608 493:0.48235 494:0.035294 507:0.94902 508:0.99608 509:0.99608 510:0.99608 511:0.99608 512:0.99608 513:0.99608 514:0.98824 515:0.98431 516:0.99608 517:0.99608 518:0.99608 519:0.78431 520:0.30196 521:0.039216 535:0.7098 536:0.90588 537:0.8 538:0.81176 539:0.92549 540:0.99608 541:0.99608 542:0.99608 543:0.99608 544:0.99608 545:0.94902 546:0.68235 547:0.13725 563:0.019608 564:0.15294 565:0.1098 566:0.015686 567:0.035294 568:0.18824 569:0.37647 570:0.37647 571:0.32941 572:0.047059 573:0.039216 574:0.015686 
0 0.08415740590909582 0 0 152:0.26275 153:0.62353 154:1 155:0.99608 156:0.99608 157:0.99608 158:0.78824 159:0.59608 160:0.078431 179:0.44706 180:0.97647 181:0.99216 182:0.99608 183:0.91373 184:0.84314 185:0.84314 186:0.92549 187:0.99216 188:0.52941 189:0.0078431 204:0.0078431 205:0.34118 206:0.66275 207:0.98431 208:0.99216 209:0.82745 210:0.49412 211:0.10588 214:0.12157 215:0.54902 216:0.99216 217:0.18431 231:0.2 232:0.69804 233:0.99216 234:0.99216 235:0.70588 236:0.51765 237:0.086275 243:0.047059 244:0.88235 245:0.53725 257:0.027451 258:0.33725 259:0.84706 260:0.99216 261:0.97647 262:0.56078 263:0.0039216 269:0.054902 270:0.66275 271:0.72157 272:0.85882 273:0.32941 285:0.34118 286:0.99216 287:0.99216 288:0.97647 289:0.30196 297:0.59608 298:0.97647 299:0.94902 300:0.74118 301:0.070588 313:0.88235 314:0.99216 315:0.99216 316:0.42745 325:0.66275 326:0.42745 327:0.32157 328:0.99216 329:0.76863 340:0.25098 341:0.98824 342:0.99216 343:0.62353 344:0.0039216 353:0.29804 354:0.0039216 355:0.031373 356:0.81569 357:0.98431 358:0.22353 368:0.25882 369:0.99216 370:0.99216 371:0.32941 384:0.65882 385:0.99216 386:0.82745 396:0.066667 397:0.9098 398:0.96471 399:0.086275 412:0.21176 413:0.97647 414:0.96078 415:0.19216 425:0.6549 426:0.99608 427:0.33333 441:0.96078 442:0.99608 443:0.25882 453:0.32549 454:0.99216 455:0.51765 469:0.95686 470:0.99216 471:0.2549 481:0.090196 482:0.90196 483:0.81569 484:0.031373 496:0.13725 497:0.97255 498:0.99216 499:0.2549 510:0.52549 511:0.99216 512:0.42745 524:0.44314 525:0.99216 526:0.99216 527:0.2549 538:0.058824 539:0.92941 540:0.97647 541:0.30588 551:0.015686 552:0.75294 553:0.99216 554:0.96863 555:0.20784 567:0.34118 568:0.98431 569:0.94902 570:0.16078 578:0.043137 579:0.55294 580:0.99216 581:0.99216 582:0.71373 596:0.65882 597:0.99216 598:0.89412 599:0.14902 605:0.10196 606:0.83529 607:0.99216 608:0.99216 609:0.91765 610:0.20784 624:0.019608 625:0.65098 626:0.99216 627:0.97255 628:0.91765 629:0.31765 630:0.082353 631:0.11765 632:0.38824 633:0.96863 634:0.99216 635:0.99216 636:0.99216 637:0.058824 653:0.011765 654:0.27059 655:0.89412 656:0.99216 657:0.99216 658:0.90196 659:0.92157 660:0.99216 661:0.99216 662:0.99216 663:0.98431 664:0.49804 665:0.0078431 683:0.058824 684:0.43529 685:0.62353 686:0.99608 687:0.99216 688:0.97647 689:0.62353 690:0.28235 691:0.23922 
4.443400719083441 9.458049047517441 12.60608858495182 0 157:0.35294 158:0.83137 159:0.99608 160:0.99608 161:1 162:0.98431 163:0.3098 183:0.078431 184:0.8 185:0.99216 186:0.85098 187:0.43529 188:0.55686 189:0.99608 190:0.99608 191:0.98431 210:0.16078 211:0.92549 212:0.99608 213:0.6 214:0.035294 216:0.0078431 217:0.77255 218:0.99608 219:0.75686 237:0.19216 238:0.96471 239:0.99608 240:0.51373 241:0.047059 245:0.75686 246:0.99608 247:0.80392 264:0.15294 265:0.90588 266:0.99608 267:0.57647 268:0.011765 272:0.090196 273:0.96078 274:0.99608 275:0.65098 291:0.22745 292:0.94902 293:0.99608 294:0.57255 295:0.066667 300:0.15294 301:0.99608 302:0.99608 303:0.36863 318:0.011765 319:0.7098 320:0.99608 321:0.68627 322:0.070588 328:0.45098 329:0.99608 330:0.99216 331:0.27843 345:0.058824 346:0.7098 347:0.99608 348:0.68235 349:0.07451 356:0.7098 357:0.99608 358:0.69804 373:0.51765 374:0.99608 375:0.99608 376:0.66667 377:0.11765 383:0.11373 384:0.93725 385:0.96863 386:0.26667 400:0.23922 401:0.94118 402:0.99608 403:0.99608 404:0.98431 405:0.20392 411:0.6 412:0.99608 413:0.56863 427:0.13725 428:0.95294 429:0.99608 430:0.92941 431:0.20392 438:0.22353 439:0.94118 440:0.92941 441:0.082353 455:0.42353 456:0.99608 457:0.9098 458:0.21961 466:0.72941 467:0.99608 468:0.46667 482:0.1451 483:0.92941 484:0.99608 485:0.33725 493:0.4 494:0.98431 495:0.58039 496:0.015686 510:0.61961 511:0.99608 512:0.64706 513:0.019608 520:0.32549 521:0.91373 522:0.7098 523:0.078431 537:0.1451 538:0.96471 539:0.95686 540:0.16078 547:0.38431 548:0.91765 549:0.88627 550:0.11373 565:0.60784 566:0.99608 567:0.61961 573:0.16863 574:0.58824 575:0.98824 576:0.78039 577:0.2902 592:0.17647 593:0.97647 594:0.99608 595:0.17255 599:0.10588 600:0.46275 601:0.86275 602:0.66667 603:0.4549 604:0.015686 620:0.79608 621:0.99608 622:0.99608 623:0.10196 624:0.015686 625:0.35686 626:0.45098 627:0.86275 628:0.56863 629:0.23922 648:0.99608 649:0.99608 650:0.99608 651:0.74902 652:0.76863 653:0.81176 654:0.58039 655:0.066667 676:0.76078 677:0.99608 678:0.9098 679:0.65098 680:0.58824 681:0.16078 
3.514409683972061 0 2.868559908038587 14.39838419510457 185:0.0039216 186:0.027451 187:0.039216 207:0.086275 208:0.25882 209:0.25882 210:0.4902 211:0.64706 212:0.64706 213:0.66667 214:0.85882 215:0.96471 216:0.64706 217:0.59216 218:0.066667 233:0.32941 234:0.67059 235:0.9098 236:0.99608 237:0.99608 238:0.92157 239:0.75686 240:0.52549 241:0.52549 242:0.41961 243:0.13725 244:0.41569 245:0.73333 246:0.73725 247:0.05098 259:0.19216 260:0.48235 261:0.90196 262:0.99608 263:0.89804 264:0.70196 265:0.55686 266:0.0078431 274:0.52549 275:0.53333 285:0.027451 286:0.46275 287:0.96471 288:0.99608 289:0.91765 290:0.67843 291:0.17255 303:0.89804 304:0.23922 313:0.1451 314:0.94118 315:0.99608 316:0.94118 317:0.086275 331:0.28627 332:0.60392 341:0.12157 342:0.92157 343:0.99608 344:0.33333 359:0.18039 360:0.60392 369:0.51765 370:0.99608 371:0.8 372:0.031373 387:0.18039 388:0.90588 397:0.76471 398:0.99608 399:0.35686 415:0.18039 416:0.99608 425:0.60784 426:0.99608 427:0.35294 443:0.18039 444:0.83529 453:0.46667 454:0.95686 455:0.59608 471:0.27059 472:0.60392 482:0.61961 483:0.93725 484:0.32157 485:0.019608 499:0.59216 500:0.27451 511:0.31765 512:0.96078 513:0.6549 514:0.24314 526:0.098039 527:0.97255 528:0.21569 540:0.13333 541:0.50588 542:0.85882 543:0.88235 544:0.29804 545:0.023529 553:0.015686 554:0.72549 555:0.80392 556:0.027451 570:0.035294 571:0.29412 572:0.7098 573:0.77255 574:0.62745 575:0.3098 580:0.10196 581:0.71765 582:0.99608 583:0.15294 600:0.015686 601:0.22353 602:0.47059 603:0.62745 604:0.87059 605:0.92157 606:0.76863 607:0.92157 608:0.9451 609:0.81569 610:0.32941 611:0.0039216 632:0.16078 633:0.27843 634:0.64314 635:0.29804 636:0.2549 637:0.019608 
0.9638343065057355 0 0 9.313606032454297 102:0.44706 103:0.55294 104:1 105:1 106:1 129:0.55294 130:1 131:0.88627 132:0.55294 133:0.11373 134:0.88627 155:0.11373 156:0.55294 157:1 158:0.88627 159:0.11373 162:0.11373 182:0.11373 183:0.44706 184:1 185:0.77647 186:0.11373 190:0.11373 209:0.22353 210:0.88627 211:0.55294 212:0.66667 236:0.66667 237:1 238:1 239:0.88627 263:0.66667 264:1 265:1 266:1 267:0.66667 290:0.44706 291:1 292:1 293:0.77647 294:0.66667 295:0.66667 317:0.11373 318:1 319:1 320:0.88627 323:0.22353 330:0.11373 331:0.11373 345:0.55294 346:1 347:0.88627 348:0.11373 358:0.44706 359:0.33725 372:0.22353 373:1 374:1 375:0.33725 386:0.55294 387:0.22353 400:0.77647 401:1 402:0.88627 413:0.22353 414:1 427:0.11373 428:1 429:1 430:0.33725 440:0.33725 441:1 442:0.66667 455:0.77647 456:1 457:0.88627 467:0.11373 468:0.77647 469:0.88627 470:0.11373 482:0.11373 483:1 484:1 485:0.55294 494:0.11373 495:0.88627 496:1 497:0.44706 510:0.22353 511:1 512:1 513:0.33725 522:0.44706 523:1 524:0.88627 538:0.33725 539:1 540:1 541:0.44706 548:0.22353 549:0.44706 550:1 551:0.88627 552:0.11373 566:0.22353 567:1 568:1 569:0.88627 574:0.22353 575:0.44706 576:1 577:0.77647 578:0.66667 579:0.11373 595:1 596:1 597:1 598:0.44706 599:0.44706 600:0.44706 601:0.77647 602:1 603:1 604:0.44706 623:0.33725 624:0.66667 625:1 626:1 627:1 628:1 629:0.77647 630:0.66667 631:0.33725 
0 7.832381736547378 0 0 209:0.035294 210:0.23922 211:0.54118 212:0.54118 213:0.54118 214:0.32941 215:0.019608 235:0.23922 236:0.49412 237:0.82353 238:0.99608 239:0.99608 240:0.99608 241:0.99608 242:0.99608 243:0.78039 244:0.2902 260:0.039216 261:0.34902 262:0.67843 263:0.99216 264:0.99608 265:0.99608 266:0.87843 267:0.55686 268:0.55686 269:0.55686 270:0.64706 271:0.98824 272:0.96078 273:0.47059 274:0.023529 287:0.19216 288:0.77647 289:0.99608 290:0.98431 291:0.73725 292:0.52941 293:0.26275 294:0.047059 299:0.31373 300:0.92941 301:0.99608 302:0.63529 314:0.25098 315:0.83529 316:0.99608 317:0.86667 318:0.32157 328:0.21569 329:0.92941 330:0.97647 331:0.32157 341:0.070588 342:0.91765 343:0.99608 344:0.74118 345:0.10196 357:0.36471 358:0.99608 359:0.64314 369:0.52941 370:0.99608 371:0.58039 372:0.015686 385:0.0078431 386:0.76863 387:0.97255 396:0.21961 397:0.97255 398:0.89412 399:0.07451 400:0.14118 401:0.047059 414:0.75294 415:0.99608 424:0.6902 425:0.99608 426:0.47059 427:0.11765 428:0.95686 429:0.47059 442:0.75294 443:0.99608 452:1 453:0.99608 454:0.10196 455:0.13333 456:0.95686 457:0.98824 458:0.41569 459:0.0039216 469:0.0078431 470:0.76863 471:0.96863 480:0.73725 481:0.99608 482:0.67843 483:0.36863 484:0.51765 485:0.99608 486:0.99608 487:0.27451 497:0.11373 498:0.99608 499:0.64314 508:0.20392 509:0.98039 510:0.99608 511:0.99608 512:0.99608 513:0.99608 514:0.99608 515:0.90196 516:0.15686 525:0.6902 526:0.99608 527:0.41176 537:0.031373 538:0.035294 539:0.035294 540:0.035294 541:0.16863 542:0.61961 543:0.99216 544:0.97647 545:0.71765 546:0.047059 552:0.46275 553:0.98824 554:0.85098 555:0.011765 571:0.18431 572:0.88235 573:0.99608 574:0.92549 575:0.9098 576:0.65098 577:0.21176 578:0.21176 579:0.60392 580:0.98431 581:0.93333 582:0.13725 600:0.082353 601:0.38431 602:0.9098 603:0.99608 604:0.99608 605:0.99608 606:0.99608 607:0.99608 608:0.85882 609:0.19216 630:0.090196 631:0.19216 632:0.44314 633:0.43137 634:0.19216 635:0.19216 636:0.094118 
8.840673983802841 21.7324654378688 26.94841917384622 0 136:0.11373 162:0.22353 163:0.66667 164:1 189:0.66667 190:1 191:1 192:1 215:0.33725 216:1 217:1 218:0.66667 219:0.55294 220:1 242:0.44706 243:1 244:1 245:0.44706 247:0.33725 248:1 268:0.11373 269:0.55294 270:1 271:0.88627 272:0.11373 275:0.44706 276:1 295:0.11373 296:0.77647 297:1 298:0.88627 303:0.66667 304:1 317:0.11373 318:0.44706 322:0.55294 323:1 324:1 325:0.77647 330:0.11373 331:1 332:0.88627 344:0.44706 345:1 346:0.88627 347:0.44706 348:0.11373 349:0.44706 350:1 351:1 352:0.55294 358:0.77647 359:1 360:0.55294 371:0.55294 372:1 373:0.66667 375:0.22353 376:0.77647 377:1 378:0.88627 379:0.33725 380:0.11373 385:0.44706 386:1 387:0.77647 398:0.11373 399:1 400:0.77647 402:0.22353 403:0.88627 404:1 405:0.77647 413:0.77647 414:1 415:0.33725 426:0.66667 427:1 428:0.22353 429:0.22353 430:1 431:0.88627 432:0.44706 439:0.11373 440:0.88627 441:1 442:0.44706 453:0.11373 454:1 455:0.44706 456:0.33725 457:1 458:0.88627 459:0.55294 467:0.77647 468:1 469:0.55294 481:0.55294 482:1 483:0.33725 484:1 485:1 486:0.55294 494:0.44706 495:1 496:0.66667 509:0.66667 510:1 511:1 512:1 513:0.55294 519:0.11373 520:0.55294 521:0.88627 522:1 523:0.44706 537:0.77647 538:1 539:1 540:0.55294 544:0.11373 545:0.11373 546:0.88627 547:1 548:1 549:1 550:0.22353 565:1 566:1 567:1 568:0.11373 570:0.11373 571:0.11373 572:0.66667 573:1 574:0.77647 575:0.66667 576:0.44706 577:0.11373 593:0.55294 594:1 595:0.88627 596:0.77647 597:0.77647 598:1 599:0.88627 600:0.77647 601:0.33725 622:0.11373 623:0.55294 624:0.66667 625:0.88627 626:0.66667 627:0.22353 
0 12.67643278873004 0 0 267:0.25098 268:0.27843 269:0.3098 270:0.55294 271:0.5098 272:0.27843 273:0.14118 290:0.011765 291:0.23137 292:0.44706 293:0.52157 294:0.84706 295:0.83529 296:0.55294 297:0.55294 298:0.55294 299:0.55686 300:0.73333 301:0.99608 302:0.62745 303:0.12157 316:0.12549 317:0.61176 318:0.78431 319:0.96863 320:0.64706 321:0.38824 322:0.1098 323:0.015686 328:0.0078431 329:0.38824 330:0.97647 331:0.78039 342:0.17647 343:0.59216 344:0.96078 345:0.96078 346:0.43529 347:0.1098 358:0.94118 359:0.93333 368:0.019608 369:0.47059 370:0.98431 371:0.95294 372:0.57647 373:0.047059 385:0.21176 386:0.97647 387:0.50196 396:0.55294 397:0.83922 398:0.63922 399:0.11765 412:0.1098 413:0.89804 414:0.8549 415:0.07451 424:0.72157 425:0.74118 439:0.12157 440:0.85882 441:0.72941 442:0.1098 452:0.45098 453:0.73725 454:0.031373 466:0.28235 467:0.85882 468:0.77647 469:0.086275 481:0.4 482:0.77255 483:0.24314 492:0.05098 493:0.51373 494:0.96078 495:0.72941 496:0.086275 510:0.15294 511:0.83137 512:0.55686 518:0.11373 519:0.47059 520:0.92941 521:0.8549 522:0.30196 523:0.031373 539:0.40392 540:0.81176 541:0.55686 542:0.55294 543:0.55294 544:0.55294 545:0.78431 546:1 547:0.73333 548:0.19216 568:0.078431 569:0.28235 570:0.37255 571:0.41961 572:0.5098 573:0.27843 574:0.078431 
0 20.27400484280861 0 15.90434752815598 129:0.32941 130:0.37647 131:0.76471 132:0.094118 154:0.047059 155:0.12549 156:0.43922 157:0.95686 158:0.98431 159:0.99216 160:0.72549 161:0.062745 182:0.37647 183:0.98431 184:0.98431 185:0.98431 186:0.98431 187:0.99216 188:0.98431 189:0.49412 208:0.062745 209:0.25098 210:0.91765 211:0.98431 212:0.98431 213:0.76863 214:0.73725 215:0.99216 216:0.98431 217:0.92549 218:0.10588 236:0.25098 237:0.98431 238:0.99216 239:0.98431 240:0.67451 241:0.047059 243:0.99216 244:0.98431 245:0.98431 246:0.12157 262:0.047059 263:0.37647 264:0.91765 265:0.99216 266:0.85882 267:0.54118 271:1 272:0.99216 273:0.99216 274:0.12157 290:0.12549 291:0.98431 292:0.98431 293:0.98431 294:0.54118 299:0.99216 300:0.98431 301:0.92157 302:0.10588 318:0.43922 319:0.98431 320:0.98431 321:0.67451 326:0.31373 327:0.99216 328:0.98431 329:0.49412 345:0.32941 346:0.95686 347:0.98431 348:0.92157 349:0.27451 353:0.062745 354:0.7098 355:0.99216 356:0.98431 357:0.49412 373:0.76078 374:0.98431 375:0.98431 376:0.34902 381:0.25098 382:0.98431 383:0.99216 384:0.90588 385:0.18431 400:0.23529 401:1 402:0.99216 403:0.80392 404:0.07451 409:0.87451 410:0.99216 411:1 412:0.24706 428:0.61961 429:0.99216 430:0.98431 431:0.49412 434:0.047059 435:0.59216 436:0.7451 437:0.95686 438:0.98431 439:0.7098 440:0.062745 456:0.61961 457:0.99216 458:0.92157 459:0.24706 462:0.68235 463:0.98431 464:0.98431 465:0.98431 466:0.98431 467:0.3098 483:0.21961 484:0.94118 485:0.99216 486:0.89412 487:0.25098 488:0.79216 489:0.86667 490:0.99216 491:0.98431 492:0.98431 493:0.76863 494:0.12157 511:0.25098 512:0.98431 513:0.99216 514:0.98431 515:0.98431 516:0.98431 517:0.98431 518:0.99216 519:0.98431 520:0.67451 521:0.27451 539:0.25098 540:0.99216 541:1 542:0.99216 543:0.99216 544:0.99216 545:0.99216 546:0.85882 547:0.15294 565:0.015686 566:0.12549 567:0.72941 568:0.98431 569:0.99216 570:0.98431 571:0.98431 572:0.87451 573:0.86275 574:0.15294 593:0.12549 594:0.98431 595:0.98431 596:0.98431 597:0.99216 598:0.98431 599:0.73725 600:0.058824 621:0.094118 622:0.86275 623:0.98431 624:0.98431 625:0.89804 626:0.65882 627:0.058824 650:0.18824 651:0.9098 652:0.59608 653:0.23137 
0 1.576907789446169 0 1.640098785506989 154:1 155:0.5451 157:0.22353 158:0.55294 159:0.5451 160:0.22353 181:0.44706 182:0.99216 183:0.98431 184:0.66275 185:0.87843 186:0.99216 187:0.98431 188:0.88235 189:0.65882 208:0.33333 209:0.77255 210:0.99608 211:0.99216 212:0.77647 213:0.99216 214:0.99608 215:0.99216 216:0.99608 217:0.99216 236:0.99216 237:0.98431 238:0.99216 239:0.98431 240:0.1098 241:0.32549 242:0.32941 243:0.76863 244:0.99216 245:0.98431 246:0.44706 262:0.55294 263:0.99216 264:0.99608 265:0.99216 266:0.99608 267:0.76863 271:0.44706 272:0.99608 273:0.99216 274:0.66275 289:0.44706 290:0.99216 291:0.98431 292:0.99216 293:0.98431 294:0.32941 295:0.1098 300:0.99216 301:0.98431 302:0.65882 316:0.55294 317:0.99216 318:1 319:0.99216 320:0.66275 321:0.21961 328:0.99608 329:0.99216 330:0.66275 343:0.44706 344:0.99216 345:0.98431 346:0.99216 347:0.54118 355:0.44706 356:0.99216 357:0.98431 358:0.65882 371:0.66275 372:0.99608 373:0.99216 374:0.88627 375:0.21961 383:0.66275 384:0.99608 385:0.99216 386:0.66275 398:0.22353 399:0.87843 400:0.99216 401:0.98431 402:0.21961 408:0.66275 409:0.65882 410:0.22353 411:0.87843 412:0.99216 413:0.98431 414:0.21961 426:0.55294 427:0.99216 428:0.99608 429:0.32941 434:0.11373 435:0.77255 436:0.99608 437:0.99216 438:0.99608 439:0.99216 440:0.99608 441:0.99216 453:0.44706 454:0.99216 455:0.98431 456:0.99216 457:0.32549 460:0.66275 461:0.65882 462:0.77255 463:0.98431 464:0.99216 465:0.98431 466:0.99216 467:0.98431 468:0.99216 469:0.54118 481:0.66275 482:0.99608 483:0.99216 484:0.66275 488:0.22353 489:0.65882 490:0.88627 491:0.21961 492:0.99608 493:0.99216 494:0.99608 495:0.99216 496:0.66275 509:0.65882 510:0.99216 511:0.98431 512:0.21961 518:0.21961 520:0.99216 521:0.98431 522:0.99216 523:0.54118 524:0.21961 537:0.66275 538:0.99608 539:0.99216 540:0.33333 541:0.1098 542:0.33333 543:0.33333 544:0.99608 545:0.5451 548:0.99608 549:0.99216 550:0.44706 565:0.21961 566:0.99216 567:0.98431 568:0.99216 569:0.76863 570:0.99216 571:0.98431 572:0.99216 573:0.98431 574:0.44706 576:0.99216 577:0.98431 594:0.22353 595:0.65882 596:0.99608 597:0.99216 598:0.99608 599:0.99216 600:0.99608 601:0.76863 602:0.99608 603:0.32941 604:0.22353 605:0.21961 623:0.44706 624:0.99216 625:0.98431 626:0.99216 627:0.98431 628:0.32941 629:0.1098 630:0.32941 631:0.1098 651:0.66275 652:0.99608 653:0.99216 654:0.88627 655:0.21961 679:0.65882 680:0.99216 681:0.54118 682:0.21961 
61.33201413331577 93.92860124448976 99.69650197672837 27.53621691234757 267:0.47059 268:0.48627 269:0.047059 292:0.0039216 293:0.3451 294:0.79216 295:0.98431 296:0.99216 297:0.81176 298:0.79216 299:0.79216 300:0.79216 301:0.79216 302:0.79216 303:0.24314 318:0.043137 319:0.41569 320:0.43529 321:0.99216 322:0.99216 323:0.99216 324:0.99216 325:0.99216 326:0.99216 327:0.99216 328:0.99216 329:0.99216 330:0.99216 331:0.30588 345:0.019608 346:0.61176 347:0.99216 348:0.99216 349:0.99216 350:0.99216 351:0.98039 352:0.95686 353:0.98039 354:0.95686 355:0.96078 356:0.99216 357:0.99216 358:0.99216 359:0.80392 368:0.34902 369:0.3451 370:0.3451 371:0.3451 372:0.3451 373:0.65882 374:0.99216 375:0.99216 376:0.98039 377:0.64706 378:0.64706 379:0.47059 381:0.45098 383:0.14118 384:0.99216 385:0.99216 386:0.99216 387:0.99216 396:1 397:0.99216 398:0.99216 399:0.99216 400:0.99216 401:0.99216 402:0.99216 403:0.99216 404:0.95686 409:0.58824 410:0.6549 411:0.70196 412:0.99216 413:0.99216 414:0.99216 415:0.53725 424:0.99608 425:0.99216 426:0.99216 427:0.99216 428:0.99216 429:0.99216 430:0.99216 431:0.99216 432:0.98824 433:0.96471 434:0.96471 435:0.96471 436:0.96471 437:0.98824 438:0.99216 439:0.99216 440:0.99216 441:0.99216 442:0.88627 443:0.21961 452:0.59216 453:0.99216 454:0.99216 455:0.99216 456:0.99216 457:0.99216 458:0.99216 459:0.99216 460:0.99216 461:0.99216 462:0.99216 463:0.99216 464:0.99216 465:0.99216 466:0.99216 467:0.99216 468:0.72549 469:0.40784 470:0.2549 480:0.031373 481:0.52549 482:0.78431 483:0.78431 484:0.78431 485:0.78431 486:0.80392 487:0.99216 488:0.83922 489:0.78431 490:0.92157 491:0.78824 492:0.78431 493:0.97255 494:0.88235 495:0.21176 496:0.054902 514:0.05098 515:0.47843 516:0.12941 518:0.31765 519:0.015686 521:0.43137 522:0.23137 
0 0 3.12161512159666 0 259:0.65098 260:0.30196 285:0.0078431 286:0.48235 287:0.96078 288:0.043137 296:0.043137 297:0.42745 298:0.8902 299:0.8902 300:0.8902 301:0.8902 302:0.6 303:0.015686 313:0.23137 314:0.99216 315:0.7098 320:0.14902 321:0.40392 322:0.61569 323:0.61569 324:0.97255 325:0.99216 326:0.99216 327:0.99216 328:0.99216 329:0.99216 330:0.99216 331:0.72549 332:0.17255 341:0.89804 342:0.99216 343:0.5451 345:0.2549 346:0.34118 347:0.60392 348:0.94118 349:0.99216 350:0.99216 351:0.87059 352:0.6549 353:0.6549 354:0.3098 355:0.23137 356:0.23137 357:0.40392 358:0.84314 359:0.99216 360:0.89412 369:1 370:0.99216 371:0.95686 372:0.91373 373:0.97255 374:0.99216 375:0.95294 376:0.92941 377:0.90196 378:0.41569 379:0.054902 386:0.37255 387:0.99216 388:0.99216 397:0.60392 398:0.93725 399:0.99216 400:0.99216 401:0.83529 402:0.58039 403:0.13725 413:0.090196 414:0.82745 415:0.99216 416:0.72157 426:0.72157 427:0.99216 428:0.70588 429:0.054902 440:0.094118 441:0.8 442:0.99216 443:0.99216 444:0.41569 454:0.68627 455:0.99216 456:0.61569 467:0.094118 468:0.81569 469:0.99216 470:0.98431 471:0.49412 472:0.011765 482:0.23137 483:0.86667 484:0.93725 485:0.3451 486:0.22745 493:0.15686 494:0.4 495:0.83529 496:0.99216 497:0.89804 498:0.48235 511:0.28627 512:0.99216 513:0.99216 514:0.98431 515:0.72549 516:0.38431 517:0.38431 518:0.38431 519:0.38431 520:0.6 521:0.92941 522:0.99216 523:0.99216 524:0.99216 525:0.43137 539:0.0039216 540:0.11373 541:0.6 542:0.88627 543:0.95294 544:0.99216 545:0.99216 546:0.99216 547:0.99216 548:0.99216 549:0.96863 550:0.38039 551:0.039216 552:0.039216 553:0.0078431 571:0.19608 572:0.31765 573:0.31765 574:0.31765 575:0.31765 576:0.31765 577:0.24314 
0.604580376385377 0 0 0 151:0.51765 152:0.99216 153:0.99608 154:0.99216 155:0.91765 156:0.43922 157:0.16078 178:0.48235 179:0.99216 180:0.98824 181:0.99216 182:0.98824 183:0.99216 184:0.98824 185:0.95294 186:0.31765 205:0.44314 206:0.99216 207:0.95686 208:0.15686 212:0.32157 213:0.91765 214:0.99216 215:0.48235 233:0.91373 234:0.98824 235:0.31765 241:0.11765 242:0.19608 243:0.95294 244:0.31765 260:0.32157 261:1 262:0.67451 271:0.83922 272:0.99216 273:0.24314 288:0.79608 289:0.99216 290:0.19608 299:0.27843 300:0.9098 301:0.55686 315:0.12157 316:0.91373 317:0.71765 328:0.71765 329:0.79608 343:0.2 344:0.98824 345:0.4 356:0.4 357:0.87451 358:0.078431 371:0.082353 372:0.23922 385:1 386:0.19608 413:0.99216 414:0.19608 428:0.32157 429:0.59608 430:0.11765 441:1 442:0.19608 455:0.16078 456:0.95294 457:0.59216 458:0.27843 468:0.16078 469:0.99216 470:0.19608 483:0.28235 484:0.75294 496:0.48235 497:0.95686 498:0.15686 511:0.59608 512:0.59216 524:0.79608 525:0.79608 539:0.59608 540:0.67451 551:0.44314 552:0.99216 553:0.32157 567:0.59608 568:0.98824 569:0.16078 578:0.16078 579:0.91373 580:0.67059 595:0.16078 596:0.95294 597:0.67843 598:0.039216 605:0.36078 606:0.91373 607:0.87843 608:0.078431 624:0.47843 625:0.99216 626:0.83137 627:0.4 628:0.4 631:0.4 632:0.55686 633:0.91373 634:0.83137 635:0.31765 653:0.32157 654:0.87451 655:1 656:0.99216 657:1 658:0.99216 659:1 660:0.99216 661:0.79608 662:0.15686 682:0.078431 683:0.43922 684:0.59216 685:0.99216 686:0.98824 687:0.75294 688:0.43529 
0 7.439298390186465 0 0 264:0.011765 265:0.035294 266:0.035294 267:0.33333 268:0.73725 269:0.73725 270:0.73725 271:0.73725 272:0.25882 273:0.0078431 290:0.23137 291:0.55686 292:0.75686 293:0.99608 294:0.99608 295:0.99608 296:0.99608 297:0.99608 298:0.99608 299:0.99608 300:0.99608 301:0.7451 302:0.16863 315:0.043137 316:0.43922 317:0.76863 318:0.99216 319:0.99608 320:0.83529 321:0.41176 322:0.36863 323:0.21961 324:0.015686 325:0.015686 326:0.015686 327:0.090196 328:0.42353 329:0.9451 330:0.84314 331:0.18824 341:0.058824 342:0.54118 343:0.88627 344:0.89804 345:0.75686 346:0.41961 347:0.19608 348:0.031373 357:0.27843 358:0.99608 359:0.70196 368:0.72157 369:0.88235 370:0.83529 371:0.42353 372:0.070588 385:0.015686 386:0.78431 387:0.99608 396:0.70196 397:0.2902 398:0.078431 413:0.015686 414:0.78431 415:0.70588 424:0.93333 425:0.21176 440:0.094118 441:0.60392 442:0.99608 443:0.47843 452:0.61176 453:0.92941 454:0.52941 455:0.37255 456:0.094118 457:0.019608 464:0.0039216 465:0.12941 466:0.37255 467:0.44706 468:0.86275 469:0.99608 470:0.55686 481:0.40392 482:0.68235 483:0.72549 484:0.99608 485:0.98824 486:0.66667 487:0.66667 488:0.66667 489:0.66667 490:0.66667 491:0.66667 492:0.67451 493:0.99608 494:0.91373 495:0.68235 496:0.68235 497:0.36471 511:0.0078431 512:0.035294 513:0.29412 514:0.62353 515:0.73333 516:0.73333 517:0.73333 518:0.73333 519:0.73333 520:0.72941 521:0.38431 522:0.035294 
0 0 18.2061449311979 0 126:0.023529 127:0.46667 128:0.53725 129:0.55686 130:0.72941 131:0.43922 152:0.090196 153:0.14118 154:0.61961 155:0.99608 156:0.99608 157:0.99608 158:0.99608 159:0.92549 160:0.4902 161:0.031373 179:0.023529 180:0.70588 181:0.99608 182:0.99608 183:0.99608 184:0.80784 185:0.78824 186:0.81176 187:0.99608 188:0.99608 189:0.37647 190:0.031373 206:0.0078431 207:0.56471 208:0.99608 209:1 210:0.63922 211:0.2549 212:0.023529 214:0.031373 215:0.39216 216:0.99608 217:0.99608 218:0.48627 234:0.35294 235:0.99608 236:0.99608 237:0.75294 238:0.14902 243:0.035294 244:0.77255 245:0.99608 246:0.6 261:0.56863 262:0.99216 263:0.99608 264:0.99608 265:0.30196 272:0.72157 273:0.99608 274:0.95294 275:0.058824 288:0.34902 289:0.99216 290:0.99608 291:0.94118 292:0.21569 293:0.015686 299:0.18039 300:0.98824 301:0.99608 302:0.61569 303:0.0039216 316:0.81569 317:0.99608 318:0.98431 319:0.19608 327:0.18824 328:0.99608 329:0.99608 330:0.82353 331:0.039216 343:0.2549 344:0.92941 345:0.99608 346:0.89804 355:0.18824 356:0.99608 357:0.99608 358:0.74902 359:0.027451 370:0.14902 371:0.92157 372:0.99608 373:0.99608 374:0.40392 375:0.1098 376:0.1098 383:0.18824 384:0.99608 385:0.99608 386:0.49412 398:0.05098 399:0.80392 400:0.99608 401:0.67451 402:0.38824 403:0.87451 404:0.39216 411:0.5451 412:0.99608 413:0.99608 414:0.13725 425:0.12157 426:0.83922 427:0.95686 428:0.99608 429:0.40784 430:0.49412 431:0.99608 432:0.54118 438:0.047059 439:0.78039 440:0.99608 441:0.54902 442:0.023529 453:0.34902 454:0.99608 455:0.99608 456:0.84314 457:0.062745 458:0.69804 459:0.99608 460:0.41176 466:0.32549 467:0.99608 468:0.99608 469:0.20784 480:0.035294 481:0.78824 482:0.99608 483:0.99608 484:0.43137 486:0.26275 487:0.99608 488:0.61569 489:0.015686 494:0.58039 495:0.99608 496:0.99608 497:0.20784 509:0.60392 510:0.99608 511:1 512:0.59216 514:0.011765 515:0.74118 516:0.99608 517:0.51373 521:0.082353 522:0.82353 523:0.99608 524:0.84706 525:0.086275 536:0.047059 537:0.86275 538:0.99608 539:0.99608 540:0.27059 543:0.47451 544:0.99608 545:0.75686 546:0.65098 547:0.26275 548:0.019608 549:0.6 550:0.99608 551:0.99608 552:0.6549 564:0.019608 565:0.71373 566:0.99608 567:0.99608 568:0.64706 571:0.070588 572:0.90196 573:0.99608 574:0.99608 575:0.99608 576:0.7451 577:0.99216 578:0.99608 579:0.99608 580:0.27843 593:0.4549 594:0.99608 595:0.99608 596:0.64706 600:0.20784 601:0.90196 602:0.99608 603:0.99608 604:0.99608 605:0.99608 606:0.99608 607:0.69804 608:0.058824 621:0.086275 622:0.68627 623:0.99608 624:0.81176 625:0.054902 629:0.42353 630:0.72157 631:0.99608 632:0.99608 633:0.99608 634:0.95294 635:0.21176 650:0.015686 651:0.28627 652:0.043137 658:0.16471 659:0.70588 660:0.99608 661:0.54118 662:0.2549 
0 16.06476606906497 10.15035125659649 0 129:0.094118 130:0.37647 131:1 132:0.99216 133:0.67843 134:0.28235 156:0.062745 157:0.72941 158:0.98431 159:0.99216 160:0.98431 161:0.98431 162:0.76863 163:0.047059 184:0.49804 185:0.85882 186:0.49412 187:0.67843 188:0.98431 189:0.98431 190:0.98431 191:0.36863 211:0.031373 212:0.49804 213:0.16471 215:0.28235 216:0.92549 217:0.98431 218:0.98431 219:0.36863 236:0.15686 237:0.61961 238:0.62353 239:0.2 240:0.18431 244:0.7451 245:0.98431 246:0.98431 247:0.75686 262:0.28235 263:0.37647 264:0.91765 265:0.99216 266:0.39216 272:0.12549 273:0.99216 274:0.99216 275:0.99216 287:0.18824 288:0.7451 289:0.74902 290:0.92549 291:0.98431 292:0.72157 293:0.24314 300:0.12549 301:0.98431 302:0.98431 303:0.98431 314:0.25098 315:0.61961 316:0.98431 317:0.99216 318:0.98431 319:0.73725 320:0.058824 328:0.12549 329:0.98431 330:0.98431 331:0.67451 341:0.6549 342:0.92549 343:0.98431 344:0.98431 345:0.74118 346:0.27059 347:0.058824 356:0.67059 357:0.98431 358:0.98431 359:0.36863 369:0.7451 370:0.98431 371:0.98431 372:0.59608 384:0.7451 385:0.98431 386:0.98431 387:0.36863 396:0.14118 397:0.83922 398:0.99216 399:0.99216 400:0.37255 411:0.37647 412:0.99216 413:0.99216 414:0.89804 415:0.23137 424:0.37647 425:0.98431 426:0.98431 427:0.82745 428:0.13725 438:0.078431 439:0.83922 440:0.98431 441:0.98431 442:0.65882 452:0.68235 453:0.98431 454:0.98431 455:0.98431 456:0.36863 465:0.12549 466:0.80392 467:0.99216 468:0.98431 469:0.98431 470:0.12157 480:0.83529 481:0.98431 482:0.98431 483:0.98431 484:0.52157 491:0.18824 492:0.25098 493:0.82353 494:0.98431 495:0.99216 496:0.8 497:0.42745 498:0.015686 508:0.37647 509:0.98431 510:0.98431 511:0.98431 512:0.98431 513:0.39216 517:0.39216 518:0.62353 519:0.89412 520:0.98431 521:0.98431 522:0.98431 523:0.75686 524:0.090196 536:0.23529 537:0.90196 538:0.99216 539:0.99216 540:0.99216 541:1 542:0.52157 543:0.37647 544:0.52549 545:0.99216 546:1 547:0.99216 548:0.99216 549:0.89804 550:0.61961 565:0.7451 566:0.98431 567:0.98431 568:0.98431 569:0.99216 570:0.98431 571:0.98431 572:0.98431 573:0.98431 574:0.99216 575:0.98431 576:0.92157 577:0.64314 593:0.37255 594:0.73725 595:0.98431 596:0.98431 597:0.99216 598:0.98431 599:0.98431 600:0.98431 601:0.98431 602:0.99216 603:0.61176 604:0.24706 622:0.062745 623:0.27451 624:0.73725 625:0.99216 626:0.98431 627:0.98431 628:0.92157 629:0.73725 630:0.12157 631:0.031373 653:0.37255 654:0.36863 655:0.36863 656:0.27451 
0 0 11.91409036001527 0 210:0.12941 211:0.72941 212:0.73725 213:0.73725 214:0.73725 215:0.73725 216:0.37647 234:0.0078431 235:0.20392 236:0.5098 237:0.59608 238:0.94902 239:0.99608 240:0.99608 241:0.99608 242:0.99608 243:0.99608 244:0.97647 245:0.73725 246:0.4 260:0.14902 261:0.40784 262:0.71373 263:0.99608 264:1 265:0.82353 266:0.7098 267:0.7098 268:0.40392 269:0.30588 270:0.30588 271:0.50196 272:0.78824 273:0.99608 274:0.92941 275:0.24706 286:0.011765 287:0.19608 288:0.9098 289:0.95686 290:0.9098 291:0.52549 292:0.35294 293:0.047059 300:0.14118 301:0.90588 302:0.99608 303:0.58824 314:0.5098 315:0.99608 316:0.83137 317:0.10588 329:0.45098 330:0.99608 331:0.58824 340:0.0039216 341:0.49412 342:0.99216 343:0.84706 344:0.11373 357:0.45098 358:0.99608 359:0.93333 368:0.43922 369:0.99608 370:0.65882 371:0.10196 385:0.45098 386:0.99608 387:0.91373 396:0.92157 397:0.99608 398:0.2902 403:0.098039 404:0.73333 405:0.3098 413:0.60784 414:0.99608 415:0.75686 424:0.93333 425:0.99608 426:0.36471 427:0.11373 429:0.11765 430:0.16471 431:0.53725 432:0.99608 433:0.32549 440:0.22353 441:0.93725 442:0.96078 443:0.32549 452:0.59216 453:0.99608 454:0.99608 455:0.91765 456:0.58824 457:0.92549 458:0.99608 459:0.99608 460:0.83529 467:0.031373 468:0.78824 469:0.99608 470:0.77255 480:0.035294 481:0.52549 482:0.99216 483:0.99608 484:0.99608 485:0.99608 486:0.99216 487:0.50588 488:0.035294 494:0.090196 495:0.86667 496:0.99608 497:0.92549 498:0.19608 510:0.33333 511:0.91765 512:0.99608 513:0.99608 514:0.98039 515:0.71373 516:0.53725 517:0.3098 518:0.3098 519:0.18431 520:0.45098 521:0.71373 522:0.91765 523:0.99608 524:0.68235 525:0.15686 539:0.20784 540:0.50588 541:0.50588 542:0.87059 543:0.99608 544:0.99608 545:0.99608 546:0.99608 547:0.95686 548:0.99608 549:0.99608 550:0.81176 551:0.47843 552:0.035294 570:0.023529 571:0.32549 572:0.66667 573:0.73333 574:0.73333 575:0.73333 576:0.42353 577:0.32549 578:0.094118 
0 19.01814380373487 0 4.653354541321149 238:0.16078 239:0.19608 240:0.19608 241:0.19608 242:0.19608 243:0.019608 260:0.062745 261:0.15294 262:0.49412 263:0.7098 264:0.83922 265:0.83922 266:0.96863 267:0.99608 268:0.99608 269:0.99608 270:0.99608 271:0.8549 272:0.48627 273:0.027451 284:0.13333 285:0.76863 286:0.78824 287:0.78824 288:0.87843 289:0.99608 290:0.99608 291:0.93725 292:0.90588 293:0.59608 294:0.55686 295:0.52941 296:0.46275 297:0.55686 298:0.55686 299:0.87843 300:0.98431 301:0.75294 302:0.054902 312:0.81569 313:0.99608 314:0.99608 315:0.99608 316:0.82353 317:0.35294 318:0.26275 319:0.098039 328:0.40392 329:0.9098 330:0.72941 331:0.011765 340:1 341:0.7098 342:0.31373 343:0.41176 344:0.55686 357:0.33333 358:0.99608 359:0.29804 368:0.89804 369:0.40392 371:0.0039216 372:0.13333 385:0.082353 386:0.92549 387:0.51373 396:0.64706 397:0.6 414:0.75294 415:0.84706 424:0.41176 425:0.87059 426:0.11765 442:0.75294 443:0.99608 453:0.73725 454:0.7098 455:0.11765 470:0.75294 471:0.70588 481:0.1451 482:0.92549 483:0.83529 484:0.11373 497:0.082353 498:0.94118 499:0.49804 510:0.3451 511:0.92941 512:0.84314 513:0.10588 525:0.23529 526:0.97647 527:0.18824 539:0.21569 540:0.81961 541:0.8549 542:0.31765 543:0.0078431 552:0.05098 553:0.74902 554:0.59608 568:0.047059 569:0.63922 570:0.91373 571:0.61569 572:0.2902 573:0.035294 579:0.14902 580:0.74902 581:0.83529 582:0.094118 598:0.17647 599:0.6549 600:0.90588 601:0.85882 602:0.56078 603:0.56078 604:0.56078 605:0.56078 606:0.65098 607:0.95686 608:0.88627 609:0.30588 628:0.082353 629:0.44706 630:0.65098 631:0.83529 632:0.83529 633:0.83529 634:0.83529 635:0.56471 636:0.070588 
0 10.36855188864059 0 0 150:0.25098 151:0.50196 152:0.50196 153:0.50196 154:0.25098 177:1 178:1 179:1 180:1 181:1 182:1 183:1 184:1 185:0.74902 186:0.50196 187:0.50196 188:0.25098 203:0.74902 204:1 205:1 206:1 207:1 208:1 209:1 210:1 211:1 212:1 213:1 214:1 215:1 216:1 217:0.25098 230:1 231:1 232:1 233:1 234:0.74902 235:0.25098 236:0.50196 237:0.50196 238:0.50196 239:0.50196 240:0.74902 241:1 242:1 243:1 244:1 245:1 256:0.25098 257:0.74902 258:1 259:1 260:1 261:0.25098 269:0.74902 270:1 271:1 272:1 273:1 274:0.50196 284:1 285:0.74902 286:1 287:1 288:0.50196 298:0.74902 299:1 300:1 301:1 302:0.50196 312:1 313:1 314:1 315:0.74902 326:0.25098 327:1 328:1 329:1 330:0.74902 339:0.74902 340:1 341:1 342:1 343:0.74902 355:1 356:1 357:1 358:1 367:1 368:1 369:1 370:1 371:1 372:0.25098 383:0.50196 384:1 385:1 386:1 396:0.50196 397:0.50196 398:0.74902 399:1 400:0.74902 411:0.74902 412:1 413:1 414:1 426:1 427:1 428:1 429:0.25098 439:1 440:1 441:1 442:1 454:0.25098 455:1 456:1 457:1 458:0.25098 467:1 468:1 469:1 470:1 484:1 485:1 486:1 495:1 496:1 497:1 498:1 512:0.74902 513:1 514:1 515:0.50196 523:0.50196 524:1 525:1 526:0.74902 541:1 542:1 543:1 544:0.25098 549:0.50196 550:1 551:1 552:1 553:1 554:0.25098 570:0.50196 571:1 572:1 573:0.25098 577:0.50196 578:1 579:1 580:1 581:0.74902 599:1 600:1 601:0.74902 605:0.74902 606:1 607:1 608:1 627:0.50196 628:1 629:1 630:1 631:1 632:1 633:1 634:1 635:0.74902 656:0.50196 657:0.74902 658:1 659:1 660:1 661:1 662:0.74902 663:0.25098 686:0.50196 687:0.50196 688:0.50196 689:0.25098 
0 24.51669145517403 0 7.846661885614266 155:0.027451 156:0.51765 157:0.51765 158:0.22353 159:0.22353 160:0.22353 161:0.05098 181:0.11373 182:0.33333 183:0.80392 184:0.99216 185:0.99216 186:0.99216 187:0.99608 188:0.99216 189:0.56471 208:0.10196 209:0.82353 210:0.99216 211:0.99608 212:0.99216 213:0.99216 214:0.99216 215:0.99608 216:0.99216 217:0.95686 218:0.098039 233:0.039216 234:0.11373 235:0.80392 236:0.99608 237:0.99608 238:0.94902 239:0.59216 243:0.05098 244:0.81569 245:0.99608 246:0.8 260:0.25098 261:0.77647 262:0.99216 263:0.99608 264:0.7451 265:0.32941 266:0.18431 272:0.37255 273:0.99216 274:0.99216 286:0.14902 287:0.58039 288:0.92157 289:0.99216 290:0.69412 291:0.21961 292:0.07451 300:0.22353 301:0.99216 302:0.99216 313:0.14902 314:0.88627 315:1 316:0.89412 317:0.40392 318:0.011765 328:0.22353 329:0.99216 330:0.99216 341:0.58039 342:0.94902 343:0.59216 356:0.22353 357:0.99608 358:0.94902 367:0.07451 368:0.56471 369:0.40392 370:0.18431 384:0.32157 385:0.99216 386:0.4549 395:0.55686 396:0.23137 397:0.05098 411:0.039216 412:0.77647 413:0.99216 414:0.1098 423:0.35686 424:0.18431 439:0.50588 440:0.99216 441:0.69412 442:0.011765 466:0.05098 467:0.80392 468:0.97255 469:0.39608 479:0.37255 480:0.51765 492:0.05098 493:0.42353 494:0.76471 495:0.99608 496:0.67059 507:0.70196 508:0.9451 509:0.17255 519:0.18824 520:0.67843 521:0.99216 522:0.99216 523:0.9098 524:0.07451 535:0.99608 536:0.99216 537:0.21961 546:0.59216 547:0.94902 548:0.99216 549:0.99216 550:0.59608 551:0.098039 563:0.31373 564:0.99608 565:0.99608 566:0.6 567:0.31373 568:0.11373 569:0.11373 570:0.11373 571:0.60392 572:0.99608 573:0.99608 574:0.99608 575:0.94118 576:0.49412 577:0.14902 578:0.05098 591:0.039216 592:0.43137 593:0.9451 594:0.99216 595:0.99608 596:0.99216 597:0.99216 598:0.99216 599:0.99608 600:0.99216 601:0.81961 602:0.38039 603:0.14902 621:0.17255 622:0.61176 623:0.66275 624:0.65882 625:0.65882 626:0.65882 627:0.66275 628:0.36471 629:0.05098 
0 2.666908869678739 0 0 238:0.05098 239:0.50196 240:0.95294 241:0.95294 242:0.95294 243:0.95294 244:0.7451 245:0.52157 246:0.2 247:0.011765 264:0.066667 265:0.40784 266:0.84706 267:0.99216 268:0.99216 269:0.78431 270:0.77647 271:0.77647 272:0.88235 273:0.99216 274:0.99216 275:0.50196 288:0.23137 289:0.34902 290:0.34902 291:0.34902 292:0.73333 293:0.99216 294:0.8 295:0.64706 296:0.2902 297:0.011765 300:0.32941 301:0.99216 302:0.99216 303:0.99216 315:0.3098 316:0.96471 317:0.99216 318:0.99216 319:0.72941 320:0.85098 321:0.38431 322:0.039216 328:0.027451 329:0.82353 330:0.99216 331:0.78431 342:0.31765 343:0.98039 344:0.99216 345:0.99216 346:0.8902 347:0.38824 348:0.10196 356:0.3098 357:0.99216 358:0.99216 359:0.56078 369:0.11765 370:0.89804 371:0.99216 372:0.69804 373:0.25882 374:0.13333 384:0.8 385:0.99216 386:0.99216 387:0.23922 396:0.058824 397:0.5451 398:0.97255 399:0.72941 400:0.047059 411:0.49412 412:0.98431 413:0.99216 414:0.99216 415:0.12941 424:0.38039 425:0.99608 426:0.99608 427:0.23137 437:0.011765 438:0.5098 439:0.99608 440:0.99608 441:0.97647 442:0.41569 452:0.86667 453:0.99216 454:0.99216 455:0.039216 465:0.20392 466:0.99216 467:0.99216 468:0.99216 469:0.51765 480:0.99608 481:0.99216 482:0.67059 483:0.0078431 492:0.32549 493:0.91373 494:0.99216 495:0.70588 496:0.36078 497:0.066667 508:0.99608 509:0.99216 510:0.60392 517:0.039216 518:0.52157 519:0.63529 520:0.96863 521:0.94902 522:0.62353 523:0.12157 536:0.90196 537:0.99216 538:0.85882 539:0.42745 540:0.21961 541:0.21961 542:0.21961 543:0.29412 544:0.65098 545:0.8 546:1 547:0.99216 548:0.81176 549:0.18431 564:0.12157 565:0.32941 566:0.93333 567:0.99216 568:0.99216 569:0.99216 570:0.99216 571:0.99216 572:0.99216 573:0.99216 574:0.7451 575:0.21569 576:0.039216 594:0.070588 595:0.12157 596:0.23529 597:0.42745 598:0.50196 599:0.086275 600:0.086275 601:0.086275 602:0.039216 
0 10.69282082163272 0 0 157:0.1098 158:0.13333 159:0.13333 160:0.13333 161:0.12549 182:0.11373 183:0.31765 184:0.6902 185:0.93725 186:0.98824 187:0.98824 188:0.98824 189:0.97647 190:0.38431 207:0.019608 208:0.65098 209:0.81961 210:0.89412 211:0.77255 212:0.6 213:0.41569 214:0.22745 215:0.6 216:0.90588 217:0.98824 218:0.96078 219:0.21569 233:0.11373 234:0.67059 235:0.95294 236:0.86275 237:0.47451 238:0.47451 239:0.019608 244:0.18431 245:0.9098 246:0.98824 247:0.82745 248:0.066667 260:0.11373 261:0.57255 262:0.98824 263:0.77255 264:0.13333 273:0.37255 274:0.90588 275:0.98824 276:0.41176 287:0.13725 288:0.87059 289:0.98824 290:0.56471 291:0.019608 302:0.60392 303:0.98824 304:0.55686 313:0.0078431 314:0.2549 315:0.94118 316:0.92941 317:0.42353 318:0.019608 330:0.58431 331:0.98824 332:0.57647 341:0.13333 342:0.81961 343:0.98824 344:0.4 358:0.17647 359:0.98824 360:0.98824 369:0.4549 370:0.98824 371:0.70196 372:0.011765 386:0.17647 387:0.98824 388:0.85882 397:0.74902 398:0.98824 399:0.41569 414:0.36471 415:0.85882 416:0.12941 425:1 426:0.99216 427:0.17255 442:0.60784 443:0.72941 444:0.019608 453:0.99216 454:0.98824 455:0.17255 469:0.011765 470:0.70588 471:0.77647 472:0.039216 481:0.99216 482:0.98824 483:0.52549 497:0.21569 498:0.98824 499:0.51765 509:0.76863 510:0.98824 511:0.63529 512:0.043137 524:0.031373 525:0.7098 526:0.97255 527:0.23529 537:0.44314 538:0.92549 539:0.98824 540:0.56471 551:0.05098 552:0.67451 553:0.88627 554:0.45098 566:0.54118 567:0.98824 568:0.97255 569:0.27059 578:0.031373 579:0.67451 580:0.98824 581:0.17647 594:0.023529 595:0.2549 596:0.76078 597:0.83922 598:0.32549 599:0.0039216 604:0.031373 605:0.40392 606:0.89412 607:0.66275 608:0.36471 609:0.0078431 624:0.43137 625:0.92941 626:0.98824 627:0.43137 628:0.17647 629:0.17647 630:0.17647 631:0.42353 632:0.75294 633:0.81569 634:0.37255 653:0.51373 654:0.98824 655:0.98824 656:0.98824 657:0.98824 658:0.85882 659:0.44706 660:0.078431 681:0.027451 682:0.12941 683:0.12941 684:0.12941 685:0.12941 686:0.07451 
0 10.68273911517488 0 0 153:0.023529 154:0.047059 155:0.43529 156:0.4549 157:0.56078 158:0.43529 159:0.3098 160:0.019608 179:0.14118 180:0.55294 181:0.85098 182:0.99216 183:0.99216 184:0.99216 185:0.99216 186:0.99216 187:0.99216 188:0.75294 189:0.066667 205:0.27451 206:0.47059 207:0.91373 208:0.96471 209:0.68235 210:0.52157 211:0.52157 212:0.50196 213:0.13333 214:0.17255 215:0.52157 216:0.74118 217:0.75686 218:0.23529 231:0.14118 232:0.41176 233:0.96471 234:0.99216 235:0.71765 236:0.28627 244:0.043137 245:0.70588 246:0.94118 247:0.14902 257:0.0078431 258:0.21961 259:0.8902 260:0.99216 261:0.88627 262:0.46275 263:0.0078431 273:0.035294 274:0.96078 275:0.56471 285:0.45882 286:0.99216 287:0.96863 288:0.5451 289:0.027451 302:0.96078 303:0.88627 312:0.26667 313:0.98431 314:0.95294 315:0.15686 330:0.95686 331:0.99216 340:0.75294 341:0.99216 342:0.44314 358:0.96078 359:0.99216 368:0.99608 369:0.72549 370:0.0078431 385:0.42745 386:0.99216 387:0.60784 396:0.99608 397:0.56078 410:0.32549 412:0.066667 413:0.84706 414:0.99216 415:0.43922 424:0.99608 425:0.56078 438:0.75294 439:0.35294 440:0.79216 441:0.99216 442:0.48235 452:0.66667 453:0.58431 466:0.5098 467:0.99216 468:0.99216 469:0.81176 470:0.019608 480:0.34902 481:0.96471 482:0.098039 493:0.18431 494:0.95686 495:0.99216 496:0.79608 497:0.086275 508:0.027451 509:0.80392 510:0.71765 511:0.015686 519:0.062745 520:0.60392 521:0.9098 522:0.99608 523:0.8 524:0.086275 537:0.14118 538:0.88235 539:0.68627 541:0.36471 542:0.57255 543:0.26667 545:0.41961 546:0.70196 547:0.88627 548:0.99216 549:0.99216 550:0.64706 551:0.086275 566:0.14902 567:0.86275 568:0.80392 569:0.76471 570:0.99216 571:0.98431 572:0.91765 573:0.96471 574:0.99216 575:0.99608 576:0.98431 577:0.59608 578:0.086275 595:0.15294 596:0.63922 597:0.96078 598:0.99216 599:0.99216 600:0.99216 601:0.99216 602:0.98824 603:0.63922 604:0.45098 625:0.23529 626:0.42745 627:0.4902 628:0.51765 629:0.42745 630:0.11373 
0 0 0 2.615944342246492 150:0.0039216 151:0.37255 152:0.74118 153:0.85098 154:0.85098 155:0.63529 156:0.14118 178:0.18039 179:0.99608 180:0.98824 181:0.8 182:0.85098 183:0.99608 184:0.73725 185:0.0078431 206:0.65098 207:0.99608 208:0.79608 210:0.11765 211:0.72157 212:0.99608 213:0.41176 233:0.20784 234:0.92941 235:0.92549 236:0.20392 239:0.2549 240:0.99608 241:0.81176 261:0.78039 262:0.99608 263:0.54118 267:0.035294 268:0.9451 269:0.98431 270:0.16078 288:0.24706 289:0.96863 290:0.98431 291:0.023529 296:0.7451 297:0.99608 298:0.47843 316:0.55294 317:0.99608 318:0.99608 319:0.72549 320:0.090196 324:0.3098 325:0.99608 326:0.70588 343:0.12549 344:0.95294 345:0.99608 346:0.99608 347:0.97647 348:0.6902 352:0.098039 353:0.98824 354:0.91765 371:0.1451 372:0.96863 373:0.99608 374:0.99608 375:0.41961 376:0.67843 377:0.066667 381:0.7098 382:0.95294 383:0.10196 399:0.19216 400:0.99608 401:1 402:0.99608 403:0.30196 404:0.13725 405:0.28235 409:0.35294 410:0.99608 411:0.2902 427:0.031373 428:0.76078 429:0.99608 430:0.99608 431:0.30196 433:0.15294 437:0.18431 438:0.99608 439:0.4549 456:0.027451 457:0.46667 458:0.99608 459:0.40392 465:0.11373 466:0.73725 467:0.55294 485:0.1098 486:0.98039 487:0.49804 493:0.035294 494:0.87843 495:0.74902 514:0.96078 515:0.72549 521:0.0039216 522:0.51373 523:0.87059 542:0.42745 543:0.98039 544:0.41176 549:0.023529 550:0.81569 551:0.87059 570:0.082353 571:0.72941 572:0.72549 573:0.027451 577:0.035294 578:0.99608 579:0.87059 599:0.32941 600:0.99608 601:0.51765 602:0.058824 605:0.54902 606:0.99608 607:0.87059 627:0.011765 628:0.43922 629:0.97647 630:0.73333 631:0.30588 632:0.50196 633:0.95294 634:0.99608 635:0.62745 656:0.011765 657:0.44314 658:0.8549 659:0.9451 660:0.99216 661:0.99608 662:0.86667 663:0.098039 685:0.0078431 686:0.023529 687:0.58431 688:0.8 689:0.67059 690:0.21961 
0 0 0 8.707016496287324 150:0.32157 184:0.32157 185:0.4 186:0.078431 210:0.63922 211:0.99608 212:0.99216 213:0.99608 214:0.99216 215:0.91765 216:0.2 237:0.63922 238:0.95294 239:0.99216 240:0.98824 241:0.99216 242:0.98824 243:0.99216 244:0.9098 264:0.63922 265:0.99608 266:0.99216 267:0.99608 268:0.51373 269:0.91765 270:0.99216 271:0.99608 272:0.99216 291:0.48235 292:0.95294 293:0.99216 294:0.98824 295:0.67451 296:0.039216 297:0.59608 298:0.98824 299:0.99216 300:0.98824 317:0.043137 318:0.36078 319:0.99608 320:0.99216 321:0.99608 322:0.83529 325:0.59608 326:0.99216 327:0.99608 328:0.75294 345:0.2 346:0.98824 347:0.99216 348:0.98824 349:0.91373 350:0.11765 353:0.59608 354:0.98824 355:0.99216 356:0.59216 373:0.67843 374:0.99216 375:0.99608 376:0.99216 377:0.16078 381:0.99608 382:0.99216 383:0.99608 384:0.59216 401:0.99216 402:0.98824 403:0.91373 404:0.27451 408:0.32157 409:0.99216 410:0.98824 411:0.91373 412:0.19608 429:0.99608 430:0.99216 431:0.79608 432:0.078431 436:0.63922 437:0.99608 438:0.91373 439:0.32157 457:0.67451 458:0.98824 459:0.078431 463:0.16078 464:0.95294 465:0.99216 466:0.59216 485:0.36078 486:0.75294 491:0.67843 492:0.99216 493:0.95686 494:0.47843 513:0.99216 514:0.75294 518:0.16078 519:0.99216 520:0.98824 521:0.87451 522:0.078431 541:0.4 542:0.79608 545:0.043137 546:0.67843 547:0.99608 548:0.99216 549:0.32157 569:0.23922 570:0.95294 571:0.48235 573:0.67843 574:0.98824 575:0.99216 576:0.98824 597:0.6 598:0.99216 599:1 600:0.99216 601:1 602:0.99216 603:0.95686 604:0.31765 625:0.43922 626:0.98824 627:0.99216 628:0.98824 629:0.99216 630:0.83137 631:0.47843 653:0.20392 654:0.75294 655:0.4 656:0.4 657:0.4 658:0.078431 681:0.12157 682:0.51373 
0.1299127418976139 0 0 0 126:0.38824 127:0.61176 128:0.61176 129:0.72941 130:0.78824 131:0.61176 132:0.090196 154:0.41569 155:0.96471 156:0.99216 157:0.96863 158:0.91373 159:0.97255 160:0.90196 161:0.27843 181:0.062745 182:0.61569 183:0.18824 184:0.48235 185:0.32941 187:0.64706 188:0.99608 189:0.55686 190:0.094118 206:0.098039 207:0.082353 209:0.14902 210:0.29804 215:0.17647 216:0.93333 217:0.99216 218:0.50588 234:0.76078 235:0.8549 236:0.11765 244:0.31765 245:0.99216 246:0.39216 261:0.38824 262:1 263:0.99608 264:0.75686 265:0.019608 272:0.61176 273:0.8 274:0.38431 288:0.34118 289:0.89804 290:0.99608 291:0.6 292:0.15294 293:0.011765 300:0.61176 301:0.5098 302:0.054902 316:0.91765 317:0.99216 318:0.53725 319:0.74902 328:0.49804 329:0.99216 330:0.68235 343:0.22745 344:0.95686 345:0.99216 346:0.83137 347:0.13725 356:0.31373 357:0.6 358:0.31765 370:0.062745 371:0.92157 372:0.99216 373:0.99216 374:0.99608 375:0.44706 384:0.41569 385:0.55686 398:0.062745 399:0.76471 400:0.70588 401:0.52941 402:1 403:0.44706 412:0.47059 413:0.99608 414:0.53725 427:0.1451 428:0.43137 429:0.75294 430:0.88627 431:0.082353 440:0.27059 441:0.79608 442:0.22353 455:0.42745 456:0.54902 457:0.78431 458:0.23529 467:0.23922 468:0.54118 469:0.74902 483:0.68627 484:0.90196 485:0.66667 494:0.027451 495:0.8 496:0.87059 497:0.098039 511:0.68627 512:0.99216 513:0.90196 514:0.44706 522:0.035294 523:0.52157 524:0.61569 539:0.3098 540:0.99608 541:0.99608 542:0.81961 543:0.035294 549:0.07451 550:0.78824 551:0.99608 567:0.047059 568:0.57255 569:0.99216 570:0.99608 571:0.53725 572:0.46275 573:0.46275 574:0.13725 575:0.46275 576:0.46275 577:0.76863 578:0.99216 579:0.66667 596:0.1098 597:0.50588 598:0.99608 599:0.99216 600:0.99216 601:0.99216 602:0.72549 603:0.99608 604:0.99216 605:0.99216 606:0.94118 607:0.42353 625:0.031373 626:0.5451 627:0.83529 628:0.9451 629:0.99216 630:0.78431 631:0.99608 632:0.99216 633:0.87059 634:0.6 656:0.16078 657:0.52157 658:0.2902 659:0.75686 660:0.60784 661:0.60784 662:0.13333 
0 19.5686626842299 1.032657452396541 0 152:0.043137 153:0.38039 154:0.85098 155:0.99608 156:0.99608 157:0.99608 158:0.59608 159:0.019608 178:0.023529 179:0.4902 180:0.8549 181:0.99216 182:0.99216 183:0.99216 184:0.99216 185:0.99216 186:0.99216 187:0.72549 188:0.011765 205:0.31765 206:0.83922 207:0.99216 208:0.99216 209:0.98824 210:0.64706 211:0.34902 212:0.34902 213:0.34902 214:0.70588 215:0.99216 216:0.50196 230:0.0078431 231:0.34902 232:0.82353 233:0.95686 234:0.99216 235:0.96471 236:0.52941 237:0.20784 242:0.19216 243:0.96471 244:0.9451 245:0.062745 258:0.31373 259:0.99216 260:0.99216 261:0.89412 262:0.63922 263:0.19608 270:0.58039 271:0.99216 272:0.99216 273:0.42745 284:0.0078431 285:0.47451 286:0.98039 287:0.99216 288:0.84314 289:0.17255 298:0.47059 299:0.98431 300:0.99216 301:0.42745 312:0.32549 313:0.99216 314:0.99216 315:0.64706 316:0.027451 327:0.63529 328:0.99216 329:0.42745 339:0.035294 340:0.82745 341:0.99216 342:0.8902 343:0.14118 355:0.89804 356:0.99216 357:0.89412 358:0.11765 367:0.36471 368:0.99216 369:0.99216 370:0.22745 382:0.11765 383:0.94902 384:0.99216 385:0.99216 386:0.21176 395:0.60392 396:0.99216 397:0.5098 398:0.0039216 410:0.39216 411:0.99216 412:0.99216 413:0.99216 414:0.44706 423:0.76863 424:0.97647 425:0.20784 437:0.043137 438:0.82353 439:0.99216 440:0.99216 441:0.99216 442:0.44314 451:0.90588 452:0.95294 465:0.3451 466:0.99216 467:0.99216 468:0.99216 469:0.99216 470:0.21176 479:0.58431 480:0.97255 481:0.16078 492:0.019608 493:0.82745 494:0.99216 495:0.99216 496:0.99216 497:0.8902 498:0.11765 507:0.21961 508:0.99216 509:0.67843 510:0.039216 520:0.38431 521:0.99216 522:0.99216 523:0.99216 524:0.99216 525:0.42745 535:0.027451 536:0.60784 537:0.99216 538:0.89412 539:0.61176 540:0.12549 547:0.094118 548:0.95686 549:0.99608 550:0.99216 551:0.99608 552:0.96078 553:0.078431 564:0.011765 565:0.39216 566:0.95294 567:0.99216 568:0.96078 569:0.70196 570:0.4902 571:0.2 573:0.0078431 574:0.31373 575:0.77647 576:0.99216 577:0.99216 578:0.99216 579:0.94902 580:0.28627 594:0.25098 595:0.58039 596:0.98039 597:0.99216 598:0.99216 599:0.96471 600:0.91765 601:0.92157 602:0.99216 603:0.99216 604:0.99216 605:0.99216 606:0.94902 607:0.27843 624:0.22745 625:0.53333 626:0.63922 627:0.91373 628:0.99216 629:0.99216 630:0.99216 631:0.99216 632:0.75686 633:0.63922 634:0.28627 655:0.027451 656:0.035294 657:0.43529 658:0.99216 659:0.91373 660:0.27451 685:0.41176 686:0.99216 687:0.39216 
0 9.774078513826399 46.11764849608712 2.577885881034504 214:0.023529 215:0.47059 216:0.71373 217:0.5451 218:0.12549 240:0.0039216 241:0.16471 242:0.62745 243:0.98824 244:0.99216 245:0.98824 246:0.92549 247:0.24314 267:0.24706 268:0.99216 269:0.98824 270:0.98824 271:0.74118 272:0.99216 273:0.98824 274:0.98824 275:0.98824 293:0.24706 294:0.6902 295:0.92941 296:0.99216 297:0.58039 298:0.13725 299:0.058824 300:0.13725 301:0.70588 302:0.98824 303:0.98824 320:0.38824 321:0.94902 322:0.98824 323:0.98824 324:0.99216 325:0.54118 329:0.28627 330:0.98824 331:0.98824 347:0.32941 348:0.99216 349:0.98824 350:0.98824 351:0.98824 352:0.42353 353:0.30196 357:0.28627 358:0.98824 359:0.98824 374:0.38824 375:0.99216 376:1 377:0.99216 378:0.99216 379:0.42353 385:0.52941 386:0.99216 387:0.74902 401:0.73333 402:0.94902 403:0.98824 404:0.87059 405:0.70196 406:0.29804 407:0.058824 412:0.52941 413:0.96863 414:0.86275 415:0.058824 427:0.082353 428:0.7098 429:0.94902 430:0.98824 431:0.90588 432:0.16078 437:0.043137 438:0.1451 439:0.47059 440:0.99216 441:0.98824 442:0.43922 454:0.082353 455:0.80784 456:0.98824 457:0.98824 458:0.90588 459:0.18039 464:0.24706 465:0.68627 466:0.98824 467:0.98824 468:0.99216 469:0.82353 470:0.12157 481:0.12549 482:0.83137 483:0.99216 484:0.99216 485:0.99216 486:0.99216 487:0.66667 488:0.43137 489:0.91373 490:0.99216 491:0.99216 492:1 493:0.99216 494:0.92941 495:0.56471 496:0.56863 497:0.078431 509:0.77255 510:0.98824 511:0.98824 512:0.98824 513:0.98824 514:0.98824 515:0.98824 516:0.99216 517:0.98824 518:0.98824 519:0.98824 520:0.99216 521:0.98824 522:0.68235 536:0.38824 537:0.94902 538:0.98824 539:0.98824 540:0.27843 541:0.27843 542:0.36078 543:0.84314 544:0.92941 545:0.84314 546:0.84314 547:0.84314 548:0.85098 549:0.35686 550:0.078431 564:0.99216 565:0.98824 566:0.90588 567:0.42353 572:0.24314 592:0.56863 593:0.6902 594:0.52157 621:0.039216 622:0.11765 
0 0 9.385016831097747 0 154:0.22353 155:0.63922 156:0.88627 157:0.39216 158:0.76078 159:0.88235 160:0.88235 161:0.33725 162:0.22353 180:0.2 181:0.3451 182:0.91765 183:0.98824 184:0.99216 185:0.78824 186:0.76471 187:0.76471 188:0.76471 189:0.99216 190:0.83922 191:0.12157 207:0.05098 208:0.89412 209:0.98824 210:0.97647 211:0.87451 212:0.63529 213:0.035294 217:0.32941 218:0.52157 234:0.3098 235:0.74902 236:0.98824 237:0.98824 238:0.56863 261:0.36078 262:0.99216 263:1 264:0.99216 265:0.52157 275:0.10196 276:0.39608 288:0.38431 289:0.95294 290:0.98824 291:0.99216 292:0.2 293:0.023529 303:0.52941 304:0.38824 315:0.07451 316:0.81961 317:0.98824 318:0.98824 319:0.52157 320:0.023529 331:0.22353 332:0.47451 333:0.098039 343:0.69804 344:0.98824 345:0.98824 346:0.61569 358:0.039216 359:0.61176 360:0.98824 361:0.50196 370:0.24706 371:0.94118 372:0.98824 373:0.98824 374:0.74118 375:0.55294 376:0.058824 386:0.33333 387:0.98824 388:0.98824 389:0.98824 398:0.6902 399:0.99216 400:0.99216 401:0.99216 402:0.99216 403:1 404:0.35294 415:0.52941 416:0.94118 417:0.54902 426:0.99216 427:0.98824 428:0.98824 429:0.98824 430:0.98824 431:0.99216 432:0.6549 443:0.22353 444:0.93725 445:0.54902 454:0.99216 455:0.98824 456:0.98824 457:0.98824 458:0.98824 459:0.99216 460:0.6549 470:0.07451 471:0.69804 472:0.87451 482:0.57255 483:0.87451 484:0.96471 485:0.98824 486:0.98824 487:0.99216 488:0.6549 498:0.39608 499:0.98824 500:0.50588 512:0.46667 513:0.98824 514:0.98824 515:0.99216 516:0.83922 517:0.43137 525:0.24706 526:0.94118 527:0.98824 528:0.32941 541:0.42353 542:0.99216 543:1 544:0.99216 545:0.87059 546:0.39608 552:0.24706 553:1 554:0.80784 555:0.3451 569:0.011765 570:0.10588 571:0.80784 572:0.98824 573:0.98824 574:0.97647 575:0.88235 576:0.88627 577:0.88235 578:0.88235 579:0.88235 580:0.94118 581:0.99216 582:0.50588 583:0.082353 599:0.098039 600:0.70588 601:0.76471 602:0.91373 603:0.98824 604:0.99216 605:0.98824 606:0.98824 607:0.96078 608:0.76471 609:0.21961 610:0.023529 630:0.21961 631:0.32941 632:0.32941 633:0.32941 634:0.32941 635:0.2902 
0.6714929838850736 0 0 0 126:0.14118 127:0.4902 128:0.4902 129:0.4902 130:0.4902 131:0.4902 132:0.75294 133:0.43922 152:0.15686 153:0.88627 154:0.98431 155:0.99608 156:0.99608 157:0.99608 158:0.99608 159:0.99608 160:0.99608 161:0.99608 162:0.63529 180:0.82353 181:0.99608 182:0.99608 183:0.88627 184:0.66275 185:0.68235 186:0.56078 187:0.8549 188:0.99608 189:0.99608 190:0.92157 207:0.81176 208:0.98824 209:0.99608 210:0.52157 211:0.054902 212:0.019608 213:0.023529 215:0.05098 216:0.14118 217:0.83922 218:0.92157 233:0.16078 234:0.58431 235:0.98431 236:0.99608 237:0.52157 238:0.023529 245:0.41961 246:0.99216 247:0.8549 261:0.59608 262:0.99608 263:0.99608 264:0.51765 265:0.023529 273:0.37255 274:0.99608 275:0.96471 276:0.16863 288:0.5451 289:0.98824 290:0.99608 291:0.99608 292:0.15294 301:0.10588 302:0.99608 303:0.99608 304:0.45882 316:0.95294 317:0.99608 318:0.99608 319:0.81176 320:0.07451 329:0.10588 330:0.99608 331:0.97255 332:0.22353 343:0.51373 344:0.98824 345:0.99608 346:0.99608 347:0.7098 348:0.031373 357:0.023529 358:0.67451 359:0.83922 360:0.32941 371:0.97647 372:0.99608 373:0.99608 374:0.99608 375:0.50588 377:0.21569 378:0.18824 385:0.027451 386:0.67451 387:0.32157 399:0.97647 400:0.99608 401:0.99608 402:0.99608 403:0.32941 404:0.66667 405:0.60392 406:0.18431 413:0.10588 414:0.6549 427:0.97647 428:0.99608 429:0.99608 430:0.99608 431:0.99608 432:0.65098 433:0.05098 441:0.37255 442:0.97647 443:0.68235 455:0.97647 456:0.99608 457:0.99608 458:0.99608 459:0.6549 460:0.047059 469:0.46275 470:0.9451 471:0.2902 483:0.63137 484:0.99608 485:0.99608 486:0.73725 487:0.043137 496:0.090196 497:0.87059 498:0.92157 511:0.46667 512:0.99608 513:0.99608 514:0.61176 524:0.46275 525:0.99608 526:0.8549 539:0.18039 540:0.96863 541:0.99608 542:0.85098 543:0.078431 551:0.098039 552:0.86275 553:1 554:0.40784 568:0.91373 569:0.99608 570:0.99608 571:0.45882 572:0.054902 578:0.054902 579:0.48627 580:0.98824 581:0.86667 582:0.16863 596:0.43922 597:0.99608 598:0.99608 599:0.99608 600:0.8549 601:0.1451 602:0.054902 603:0.054902 604:0.043137 605:0.1451 606:0.86667 607:0.99608 608:0.84314 624:0.20392 625:0.67059 626:0.99608 627:0.99608 628:0.99608 629:0.99608 630:0.99608 631:0.99608 632:0.8902 633:0.87059 634:0.99608 635:0.91373 636:0.16471 654:0.43922 655:0.93333 656:0.73333 657:0.83922 658:0.62745 659:0.86667 660:0.86667 661:0.99608 662:1 663:0.57647 
0 0 1.19896147050473 0 151:0.25098 152:0.50196 153:0.50196 154:0.50196 155:0.74902 156:1 157:0.74902 158:0.50196 159:0.25098 176:0.25098 177:0.50196 178:1 179:1 180:1 181:1 182:1 183:1 184:1 185:1 186:1 187:1 188:0.25098 202:0.25098 203:1 204:1 205:1 206:1 207:1 208:0.50196 209:0.50196 210:0.50196 213:0.25098 214:0.74902 215:1 216:1 217:1 218:0.25098 229:0.25098 230:0.74902 231:1 232:0.74902 233:0.50196 234:0.50196 243:0.25098 244:1 245:1 246:1 247:0.25098 257:0.74902 258:1 259:0.74902 272:0.25098 273:1 274:1 275:0.50196 284:0.50196 285:1 286:1 301:0.50196 302:1 303:0.74902 312:0.74902 313:1 314:0.25098 329:0.50196 330:1 331:1 340:1 341:1 342:0.25098 357:0.50196 358:1 359:1 368:1 369:1 370:0.25098 385:0.50196 386:1 387:0.50196 396:0.74902 397:1 398:0.25098 413:0.74902 414:1 415:0.50196 424:0.50196 425:1 440:0.25098 441:1 442:1 452:0.50196 453:0.50196 468:0.50196 469:1 470:0.74902 480:0.50196 481:0.74902 496:0.74902 497:1 498:0.25098 508:0.50196 509:1 510:0.25098 523:0.74902 524:1 525:1 537:1 538:1 550:0.74902 551:1 552:0.74902 565:0.50196 566:1 567:0.25098 576:0.25098 577:0.74902 578:1 579:0.74902 580:0.25098 594:1 595:1 596:0.50196 603:0.50196 604:1 605:1 606:1 607:0.25098 622:0.25098 623:1 624:1 625:1 626:1 627:0.74902 628:1 629:1 630:1 631:1 632:1 633:0.74902 651:0.25098 652:0.50196 653:1 654:1 655:1 656:1 657:1 658:1 659:0.74902 660:0.25098 683:0.50196 684:0.50196 685:0.50196 
0 8.811272232388175 0 0 200:0.0039216 201:0.035294 228:0.14902 229:0.42353 238:0.035294 239:0.066667 240:0.35294 241:0.39608 242:0.39608 243:0.07451 256:0.58431 257:0.63529 262:0.011765 263:0.12549 264:0.56471 265:0.73725 266:0.86667 267:0.99608 268:0.99608 269:0.99608 270:0.99608 271:0.92549 272:0.73725 273:0.43922 274:0.0039216 284:0.91765 285:0.63529 289:0.1098 290:0.70588 291:0.99608 292:0.99608 293:0.85882 294:0.40392 295:0.24314 296:0.24314 297:0.24314 298:0.24314 299:0.43922 300:0.90196 301:0.99608 302:0.6549 303:0.0078431 312:1 313:0.38431 316:0.14118 317:0.94118 318:0.9451 319:0.61961 320:0.2902 321:0.043137 328:0.066667 329:0.52549 330:0.99216 331:0.55686 340:0.73725 341:0.35294 343:0.054902 344:0.94118 345:0.40392 346:0.11765 358:0.70588 359:0.99608 368:0.67059 369:0.68235 371:0.1451 372:0.28235 373:0.05098 386:0.63922 387:0.99608 396:0.40392 397:0.96863 398:0.05098 414:0.6902 415:0.99608 424:0.066667 425:0.93725 426:0.51765 441:0.054902 442:0.97255 443:0.65882 453:0.51373 454:0.98824 455:0.30196 469:0.36078 470:0.99608 471:0.27843 481:0.047059 482:0.67059 483:0.9451 484:0.29804 496:0.31373 497:0.9451 498:0.47843 499:0.0039216 510:0.043137 511:0.67451 512:0.94902 513:0.60392 514:0.054902 522:0.058824 523:0.5098 524:0.95294 525:0.54902 526:0.0039216 539:0.062745 540:0.68235 541:0.99608 542:0.88235 543:0.31765 544:0.24706 545:0.086275 546:0.043137 547:0.13333 548:0.24706 549:0.43137 550:0.8902 551:0.99608 552:0.66275 553:0.039216 568:0.0078431 569:0.2549 570:0.84706 571:0.99608 572:0.99608 573:0.94118 574:0.92941 575:0.95686 576:0.99608 577:0.99608 578:0.92941 579:0.23922 580:0.031373 598:0.031373 599:0.062745 600:0.32941 601:0.54902 602:0.71765 603:0.71765 604:0.43529 605:0.10196 606:0.047059 
5.232793784676897 0 0 0 154:0.34118 155:0.54118 156:0.87059 157:0.99216 158:0.99216 159:1 160:0.9098 161:0.39608 181:0.37255 182:0.99216 183:0.98824 184:0.98824 185:0.83922 186:0.80784 187:0.82745 188:0.98824 189:0.8902 190:0.11373 208:0.39216 209:0.96471 210:0.99216 211:0.81569 212:0.39216 213:0.05098 215:0.027451 216:0.60392 217:0.98824 218:0.50588 235:0.39216 236:0.95686 237:0.98824 238:0.38431 239:0.066667 244:0.035294 245:0.76863 246:0.62745 262:0.37255 263:0.96471 264:0.98824 265:0.78431 266:0.61961 273:0.72157 274:0.95686 275:0.082353 289:0.38039 290:0.99216 291:0.96863 292:0.36863 294:0.41569 301:0.72549 302:0.99216 303:0.090196 316:0.2902 317:0.99216 318:0.98824 319:0.43137 329:0.72157 330:0.98824 331:0.086275 343:0.26667 344:0.84314 345:0.99216 346:0.52549 347:0.07451 357:0.72157 358:0.8902 359:0.062745 370:0.47451 371:0.79608 372:0.98824 373:0.58824 374:0.066667 385:0.72157 386:0.62745 397:0.37255 398:0.96471 399:0.98824 400:0.57647 412:0.086275 413:0.84314 414:0.62745 424:0.094118 425:0.83137 426:0.99216 427:0.58824 440:0.18431 441:0.99216 442:0.63137 452:0.54118 453:0.98824 454:0.52549 455:0.066667 468:0.47059 469:0.98824 470:0.34118 480:0.18824 481:0.8902 482:0.67059 483:0.05098 496:0.63137 497:0.91373 498:0.12941 508:0.24314 509:0.92549 510:0.98824 511:0.5451 523:0.035294 524:0.76078 525:0.55294 536:0.54118 537:0.98824 538:0.74118 539:0.054902 551:0.094118 552:0.98824 553:0.27059 564:0.043137 565:0.79608 566:0.87059 567:0.3451 579:0.38039 580:0.76863 593:0.23137 594:0.81961 595:0.85882 596:0.22353 597:0.086275 605:0.066667 606:0.38824 607:0.89412 608:0.29412 622:0.32157 623:0.94118 624:0.98824 625:0.84706 626:0.38824 631:0.05098 632:0.39608 633:0.81961 634:0.86667 635:0.12549 651:0.1451 652:0.38431 653:0.82745 654:0.95686 655:0.81176 656:0.81176 657:0.81176 658:0.81569 659:0.84314 660:0.98824 661:0.52549 662:0.098039 681:0.090196 682:0.53725 683:0.65882 684:0.98824 685:0.98824 686:0.7451 687:0.53725 688:0.21176 689:0.015686 
0 0.8698954599341938 0 0 125:0.086275 126:0.34118 127:0.54118 128:0.54118 129:0.74902 130:0.33725 131:0.043137 151:0.05098 152:0.54902 153:0.95686 154:0.99216 155:0.87451 156:0.85882 157:0.98824 158:0.98824 159:0.74118 178:0.25882 179:0.67059 180:0.9098 181:0.33333 182:0.27059 183:0.098039 184:0.07451 185:0.27059 186:0.92549 187:0.96863 188:0.58824 205:0.44706 206:0.92549 207:0.72549 208:0.46667 209:0.015686 214:0.57255 215:0.99216 216:0.87451 217:0.098039 233:0.74902 234:0.98824 235:0.27059 242:0.20784 243:0.99216 244:0.98824 245:0.27059 257:0.43137 258:0.87059 259:0.38039 260:0.21569 261:1 262:0.99216 263:0.72157 271:0.74902 272:0.99216 273:0.72157 285:0.3451 286:0.98824 287:0.54902 288:0.031373 289:0.36078 290:0.44314 291:0.38431 299:0.2549 300:0.98824 301:0.8902 302:0.19608 312:0.027451 313:0.52549 314:0.86667 315:0.62745 327:0.066667 328:0.8902 329:0.98824 330:0.42353 340:0.058824 341:0.85882 342:0.98824 343:0.62745 355:0.043137 356:0.79608 357:0.98824 358:0.62745 368:0.086275 369:0.95686 370:0.98824 371:0.62745 384:0.63137 385:0.98824 386:0.62745 396:0.043137 397:0.79608 398:0.99216 399:0.82745 400:0.29804 412:0.63529 413:0.99216 414:0.82745 415:0.05098 425:0.51765 426:0.94118 427:0.98824 428:0.82745 440:0.63137 441:0.98824 442:0.82353 443:0.047059 454:0.39608 455:0.98824 456:0.98824 457:0.33333 468:0.63137 469:0.86667 470:0.98824 471:0.086275 482:0.27451 483:0.98824 484:0.98824 485:0.61569 496:0.63137 497:0.9098 498:0.6902 499:0.015686 510:0.14902 511:0.53725 512:0.94902 513:0.98431 514:0.52941 523:0.2902 524:0.95686 525:0.98824 526:0.62745 540:0.86667 541:1 542:0.9098 543:0.41961 544:0.058824 551:0.79216 552:0.99216 553:0.84314 554:0.082353 568:0.16471 569:0.9098 570:0.98824 571:0.98824 572:0.69412 573:0.019608 578:0.086275 579:0.99216 580:0.98824 581:0.71765 597:0.14902 598:0.4 599:0.98824 600:0.98824 601:0.7451 602:0.68235 603:0.27451 604:0.39608 605:0.72157 606:0.84314 607:0.99216 608:0.73333 609:0.19608 626:0.11765 627:0.72549 628:0.98824 629:0.98824 630:0.99216 631:0.98824 632:0.98824 633:0.98824 634:0.98824 635:0.58824 636:0.066667 655:0.027451 656:0.61961 657:0.98824 658:0.99216 659:0.98824 660:0.98824 661:0.98824 662:0.98824 
0 0 12.6815246897944 10.96414433215099 266:0.22353 267:0.33333 268:0.33333 269:0.33333 270:0.33333 271:0.33333 272:0.1098 293:0.66275 294:0.87843 295:0.99216 296:0.98431 297:0.99216 298:0.98431 299:0.99216 300:0.76863 317:0.55294 318:0.99216 319:0.99608 320:0.99216 321:0.99608 322:0.99216 323:0.99608 324:0.99216 325:0.99608 326:0.99216 327:0.99608 328:0.99216 329:0.77647 330:0.33333 343:0.22353 344:0.65882 345:0.99216 346:0.98431 347:0.99216 348:0.98431 349:0.99216 350:0.98431 351:0.99216 352:0.98431 353:0.99216 354:0.98431 355:0.99216 356:0.98431 357:0.99216 358:0.98431 369:0.11373 370:0.77255 371:0.99608 372:0.99216 373:0.99608 374:0.99216 375:0.99608 376:0.76863 377:0.66275 378:0.65882 379:0.66275 380:0.21961 382:0.44706 383:0.99608 384:0.99216 385:0.99608 386:0.99216 397:0.77255 398:0.98431 399:0.99216 400:0.98431 401:0.99216 402:0.54118 403:0.32941 404:0.1098 411:0.99216 412:0.98431 413:0.99216 414:0.98431 424:0.66275 425:0.99608 426:0.99216 427:0.99608 428:0.32941 436:0.22353 437:0.33333 438:0.77255 439:0.99608 440:0.99216 441:0.99608 442:0.76863 452:0.65882 453:0.99216 454:0.98431 455:0.32941 456:0.1098 463:0.66275 464:0.87843 465:0.99216 466:0.98431 467:0.99216 468:0.98431 469:0.76863 470:0.1098 479:1 480:0.99216 481:0.44706 483:0.33333 484:0.99216 485:0.99608 486:0.99216 487:0.77647 488:0.77255 489:0.99608 490:0.99216 491:0.99608 492:0.99216 493:0.99608 494:0.99216 495:0.99608 496:0.76863 507:0.32941 508:0.32549 511:0.33333 512:0.98431 513:0.99216 514:0.98431 515:0.99216 516:0.98431 517:0.99216 518:0.98431 519:0.99216 520:0.98431 521:0.99216 522:0.98431 523:0.32941 524:0.1098 543:0.22353 544:0.65882 545:0.66275 546:0.65882 547:0.66275 548:0.65882 
0.3899254100862813 0 15.43001757304696 0 184:0.05098 185:0.18431 186:0.18431 187:0.22353 188:0.54902 189:0.18431 190:0.035294 210:0.027451 211:0.27451 212:0.67451 213:0.98824 214:0.98824 215:0.99216 216:0.98824 217:0.98824 218:0.50588 237:0.33333 238:0.83137 239:0.98824 240:0.98824 241:0.98824 242:0.98824 243:0.99216 244:0.98824 245:0.98824 246:0.92549 247:0.44314 262:0.086275 263:0.4549 264:0.82353 265:0.98039 266:0.99216 267:0.98824 268:0.65882 269:0.53725 270:0.53725 271:0.090196 272:0.37647 273:0.86667 274:0.98824 275:0.53725 289:0.13333 290:0.83137 291:0.99216 292:0.99216 293:0.95294 294:0.86667 295:0.37255 298:0.043137 299:0.094118 300:0.38039 301:0.87059 302:0.99216 303:0.99216 316:0.37255 317:0.99216 318:0.98824 319:0.98824 320:0.67451 321:0.19608 323:0.11765 324:0.18431 325:0.34902 326:0.79608 327:0.99216 328:0.98824 329:0.98824 330:0.98824 331:0.98824 342:0.07451 343:0.64314 344:0.96471 345:0.99216 346:0.94118 347:0.39216 348:0.05098 349:0.25098 350:0.31765 351:0.89412 352:0.98824 353:0.98824 354:0.98824 355:0.67843 356:0.4 357:0.98824 358:0.98824 359:0.98824 369:0.066667 370:0.73725 371:0.98824 372:0.98824 373:0.79608 374:0.3098 375:0.26667 376:0.52549 377:0.97255 378:0.99216 379:0.98824 380:0.8902 381:0.62745 382:0.21961 384:0.18431 385:0.98824 386:0.98824 387:0.61569 397:0.59216 398:0.98824 399:0.98824 400:0.78431 401:0.043137 402:0.2902 403:0.84314 404:0.98824 405:0.98824 406:0.95294 407:0.25098 408:0.062745 412:0.59216 413:0.98824 414:0.98824 415:0.53725 424:0.58431 425:0.99216 426:0.92549 427:0.36863 428:0.043137 429:0.79216 430:0.99216 431:0.99216 432:0.96078 433:0.28627 439:0.094118 440:0.99216 441:0.99216 442:0.58824 452:0.99216 453:0.98824 454:0.27059 456:0.74118 457:0.99216 458:0.98824 459:0.98824 460:0.62745 467:0.66667 468:0.98824 469:0.81569 470:0.066667 480:0.99216 481:0.98824 482:0.39216 483:0.39216 484:0.96471 485:0.99216 486:0.98824 487:0.91373 488:0.25098 493:0.10196 494:0.47843 495:0.99216 496:0.98824 497:0.39216 508:0.99216 509:0.98824 510:0.94118 511:0.95686 512:0.98824 513:0.99216 514:0.98824 515:0.55294 520:0.10196 521:0.79608 522:0.98824 523:0.99216 524:0.83922 525:0.05098 536:0.78824 537:0.98824 538:0.98824 539:0.98824 540:0.98824 541:0.99216 542:0.61569 543:0.023529 546:0.043137 547:0.53333 548:0.92549 549:0.98824 550:0.98824 551:0.9098 552:0.070588 564:0.25098 565:0.53333 566:0.92941 567:0.99216 568:0.99216 569:0.95686 570:0.54118 571:0.54118 572:0.54118 573:0.74902 574:1 575:0.99216 576:0.99216 577:0.91765 578:0.49412 594:0.098039 595:0.79216 596:0.98824 597:0.99216 598:0.98824 599:0.98824 600:0.98824 601:0.98824 602:0.97647 603:0.80784 604:0.48235 605:0.066667 623:0.098039 624:0.47451 625:0.84314 626:0.71765 627:0.84314 628:0.71765 629:0.71765 630:0.6549 653:0.082353 655:0.082353 
0 0 9.113247404659917 0 118:0.10196 146:0.098039 159:0.33333 160:0.33333 161:0.33333 162:0.039216 185:0.6902 186:0.88235 187:0.99216 188:0.98824 189:0.98824 190:0.50196 211:0.36078 212:0.84706 213:0.99216 214:0.99216 215:0.99608 216:0.99216 217:0.99216 218:0.99216 237:0.07451 238:0.41961 239:0.99216 240:0.98824 241:0.98824 242:0.79216 243:0.52549 244:0.47843 245:0.98824 246:0.98824 264:0.07451 265:0.74902 266:0.98824 267:0.99216 268:0.91373 269:0.5098 270:0.023529 272:0.37255 273:0.98824 274:0.98824 291:0.10196 292:0.90588 293:0.98824 294:0.98824 295:0.69804 296:0.086275 299:0.10196 300:0.95294 301:0.98824 302:0.59216 318:0.29804 319:0.8 320:0.99216 321:0.76078 322:0.24706 327:0.16078 328:0.99216 329:0.99216 330:0.30588 345:0.32157 346:0.95294 347:0.96863 348:0.67059 349:0.07451 355:0.65098 356:0.98824 357:0.91373 358:0.086275 372:0.32157 373:0.94118 374:0.98824 375:0.58824 382:0.14902 383:0.99216 384:0.98824 385:0.5098 399:0.6902 400:0.95294 401:0.98824 402:0.4 409:0.14902 410:0.88235 411:0.99216 412:0.79216 413:0.023529 426:0.6902 427:0.99608 428:0.87059 429:0.44314 430:0.05098 436:0.17647 437:0.69804 438:0.99216 439:0.98431 440:0.29412 452:0.05098 453:0.37255 454:0.95294 455:0.87059 456:0.40392 463:0.27451 464:0.88235 465:0.98824 466:0.98824 467:0.4902 479:0.039216 480:0.67451 481:0.98824 482:0.98824 483:0.58824 490:0.49412 491:0.99216 492:0.98824 493:0.98824 494:0.49804 507:0.89804 508:0.98824 509:0.98824 510:0.98824 511:0.98039 512:0.88235 513:0.88235 514:0.68627 515:0.44706 516:0.73725 517:0.88235 518:0.97647 519:0.99216 520:0.98824 521:0.30196 522:0.011765 535:1 536:0.99216 537:0.80784 538:0.44314 539:0.89804 540:0.99216 541:0.99216 542:0.99216 543:0.99608 544:0.99216 545:0.99216 546:0.99216 547:0.63922 548:0.3451 563:0.77255 564:0.76863 565:0.31765 567:0.039216 568:0.42745 569:0.76863 570:0.76863 571:0.77255 572:0.76863 573:0.76863 574:0.37647 
0 2.576659858399165 0 0 133:0.078431 134:0.0078431 157:0.027451 158:0.58039 159:0.82353 160:0.82353 161:0.88627 162:0.60784 163:0.094118 184:0.54902 185:0.88235 186:0.99608 187:0.99608 188:0.99608 189:0.99608 190:0.99608 191:0.47059 209:0.12549 210:0.78824 211:0.86275 212:0.97647 213:0.99608 214:0.99216 215:0.63922 216:0.52549 217:0.84706 218:0.99608 219:0.79216 236:0.22745 237:0.86275 238:0.99608 239:0.99608 240:0.86275 241:0.54902 242:0.32549 245:0.35686 246:0.99608 247:0.99608 262:0.043137 263:0.54902 264:0.97647 265:0.99608 266:0.89412 267:0.39608 268:0.054902 273:0.55294 274:0.99608 275:0.95294 289:0.043137 290:0.7098 291:0.99608 292:0.99608 293:0.51373 294:0.12941 301:0.7451 302:0.99608 303:0.47843 316:0.047059 317:0.72157 318:0.99608 319:0.9098 320:0.53725 321:0.0078431 328:0.13333 329:0.98431 330:0.96863 331:0.18039 343:0.031373 344:0.71373 345:0.99608 346:0.99608 347:0.30196 356:0.14118 357:0.99608 358:0.81961 370:0.05098 371:0.72157 372:0.99608 373:0.99608 374:0.59216 375:0.0039216 384:0.75686 385:0.99608 386:0.36078 397:0.027451 398:0.71765 399:0.99608 400:0.99216 401:0.42353 402:0.054902 411:0.41961 412:0.98431 413:0.71373 414:0.0078431 425:0.52549 426:0.99608 427:0.98039 428:0.38431 438:0.023529 439:0.77647 440:0.99608 441:0.54902 452:0.36471 453:0.97255 454:0.99608 455:0.56471 465:0.019608 466:0.3098 467:0.99608 468:0.91373 469:0.14118 480:0.60784 481:0.99608 482:0.82745 483:0.047059 493:0.53725 494:0.99608 495:0.99608 496:0.36078 508:0.95686 509:0.99608 510:0.43529 520:0.59216 521:0.96078 522:0.98824 523:0.50196 524:0.011765 536:0.75294 537:0.99608 538:0.82353 539:0.043137 546:0.0078431 547:0.56078 548:0.95294 549:0.99608 550:0.50196 564:0.10196 565:0.90588 566:0.99608 567:0.77647 568:0.65098 569:0.17647 570:0.27059 571:0.52941 572:0.52941 573:0.83922 574:0.84706 575:0.99608 576:0.98824 577:0.33725 578:0.011765 593:0.39608 594:0.99608 595:0.99608 596:0.99608 597:0.99608 598:0.99608 599:0.99608 600:0.99608 601:0.99608 602:0.99608 603:0.77647 604:0.29804 621:0.019608 622:0.27451 623:0.58039 624:0.43137 625:0.78431 626:0.81961 627:0.45098 628:0.57255 629:0.28235 630:0.26667 631:0.015686 
0 12.80438849008798 0 0 181:0.043137 182:0.14118 183:0.56078 184:0.60392 185:0.60392 186:0.51765 187:0.14118 188:0.031373 208:0.05098 209:0.66275 210:0.99216 211:0.99216 212:0.99216 213:0.99216 214:0.99216 215:0.99216 216:0.58824 217:0.031373 234:0.027451 235:0.56863 236:0.8 237:0.99216 238:0.99216 239:0.99216 240:0.85098 241:0.71373 242:0.89804 243:0.99216 244:0.99216 245:0.48627 261:0.33725 262:0.62353 263:0.99216 264:0.99216 265:0.88627 266:0.47451 267:0.18431 268:0.090196 270:0.20784 271:0.89804 272:0.99216 273:0.92157 274:0.054902 288:0.17647 289:0.96863 290:0.99216 291:0.99216 292:0.69804 293:0.18431 299:0.52157 300:0.99216 301:0.99216 302:0.26275 314:0.0078431 315:0.56471 316:0.96863 317:0.99216 318:0.94902 319:0.21569 320:0.015686 327:0.25098 328:0.98824 329:0.99216 330:0.52941 340:0.12549 341:0.55686 342:0.67843 343:0.99216 344:0.99216 345:0.93725 346:0.4 356:0.78824 357:0.99216 358:0.52941 367:0.035294 368:0.78431 369:0.99216 370:0.99216 371:0.99216 372:0.92549 373:0.20784 384:0.78824 385:0.99216 386:0.60392 396:0.60392 397:0.99216 398:0.99216 399:0.99216 400:0.25098 412:0.78824 413:0.99216 414:0.99216 423:0.41569 424:0.90588 425:0.99216 426:0.99216 427:0.99216 428:0.11373 439:0.2 440:0.9451 441:0.99216 442:0.63529 451:0.92549 452:0.99216 453:0.99216 454:0.99216 455:0.99216 456:0.65882 457:0.37255 458:0.16471 467:0.25882 468:0.99216 469:0.99216 470:0.52941 479:1 480:0.99216 481:0.99216 482:0.99216 483:0.99216 484:0.99216 485:0.98431 486:0.24314 495:0.25882 496:0.99216 497:0.99216 498:0.52941 507:0.27059 508:0.48627 509:0.16863 510:0.019608 511:0.56078 512:0.98824 513:0.99216 514:0.92941 515:0.21176 522:0.011765 523:0.72157 524:0.99216 525:0.99216 526:0.07451 540:0.36863 541:0.91373 542:0.99216 543:0.92549 544:0.58039 545:0.18824 550:0.24314 551:0.99216 552:0.99216 553:0.76078 554:0.027451 569:0.18039 570:0.82353 571:0.99216 572:0.99216 573:0.8902 574:0.47843 575:0.18824 576:0.18824 577:0.24314 578:0.87451 579:0.99216 580:0.99216 581:0.29804 598:0.027451 599:0.56471 600:0.91765 601:0.99216 602:0.99216 603:0.99216 604:0.99216 605:0.99216 606:0.99216 607:0.99216 608:0.75686 609:0.039216 628:0.1451 629:0.20784 630:0.38039 631:0.66667 632:0.98824 633:0.99216 634:0.93333 635:0.54902 636:0.14118 660:0.13333 661:0.13725 662:0.1098 
0.4104110893426983 0 0 0 181:0.07451 182:0.38431 183:0.38431 184:0.38431 185:0.38431 186:0.38431 187:0.082353 208:0.24706 209:0.72549 210:0.99608 211:0.99608 212:0.99608 213:0.99608 214:0.99608 215:0.37647 234:0.33333 235:0.76078 236:0.95294 237:0.95686 238:0.72157 239:0.23922 240:0.23922 241:0.23922 242:0.78039 243:0.94118 244:0.76078 245:0.28627 262:0.14118 263:0.32157 264:0.32157 265:0.26275 270:0.10588 271:0.4549 272:0.95686 273:0.46275 274:0.062745 300:0.67451 301:0.99608 302:0.45882 328:0.16471 329:0.99608 330:0.73333 339:0.20392 340:0.43529 341:0.070588 356:0.16471 357:0.99608 358:0.99608 367:0.46275 368:0.99608 369:0.16078 384:0.16471 385:0.99608 386:0.5098 395:0.75686 396:0.89412 397:0.11765 412:0.16471 413:0.99608 414:0.45882 423:0.46275 424:0.6902 425:0.13725 440:0.26667 441:0.93725 442:0.12549 451:0.41176 452:0.98824 453:0.69804 468:0.70588 469:0.85882 480:0.40784 481:0.78431 482:0.15294 494:0.011765 495:0.16078 496:0.85098 497:0.36863 508:0.19608 509:0.92157 510:0.78039 522:0.58824 523:0.87843 524:0.15294 537:0.043137 538:0.64314 539:0.40784 540:0.40784 541:0.2 547:0.011765 548:0.40784 549:0.92157 550:0.85882 551:0.45098 566:0.58039 567:0.99608 568:1 569:0.65098 570:0.18431 574:0.27451 575:0.87059 576:0.99608 577:0.68627 578:0.16078 594:0.047059 595:0.28627 596:0.76863 597:0.99608 598:0.90588 599:0.78431 600:0.78431 601:0.78431 602:0.89804 603:0.73725 604:0.21569 605:0.011765 624:0.019608 625:0.29412 626:0.52941 627:0.83529 628:0.68627 629:0.29412 630:0.26275 
0 15.2782049430345 0 7.47799494517383 289:0.0039216 290:0.031373 291:0.28235 292:0.80392 293:0.92549 294:0.92549 295:0.81961 296:0.62745 297:0.62745 298:0.62745 299:0.48627 300:0.15686 301:0.0039216 315:0.13333 316:0.58824 317:0.74118 318:0.99608 319:0.99608 320:0.87059 321:0.86275 322:0.86275 323:0.9098 324:0.99608 325:0.99608 326:0.99608 327:0.99608 328:0.99608 329:0.73333 330:0.52549 331:0.015686 341:0.12549 342:0.51373 343:0.95294 344:0.8 345:0.65882 346:0.42353 347:0.16471 348:0.011765 351:0.058824 352:0.16471 353:0.16471 354:0.16471 355:0.16471 356:0.24706 357:0.75686 358:0.99608 359:0.51373 368:0.070588 369:0.91373 370:0.8902 371:0.49804 372:0.011765 385:0.043137 386:0.81176 387:0.98039 396:0.46667 397:0.90196 398:0.2902 413:0.56471 414:1 415:0.95294 424:0.61176 425:0.62353 438:0.098039 439:0.2549 440:0.60392 441:0.99608 442:1 443:0.28235 452:0.77255 453:0.82353 454:0.11373 463:0.023529 464:0.2902 465:0.44314 466:0.87451 467:0.99608 468:0.99608 469:0.94902 470:0.58039 471:0.035294 480:0.098039 481:0.85098 482:0.99608 483:0.72549 484:0.46667 485:0.18824 486:0.11765 487:0.16471 488:0.28235 489:0.76078 490:0.76078 491:0.84706 492:0.99608 493:0.99608 494:0.99608 495:0.96863 496:0.56863 497:0.14902 509:0.1098 510:0.75294 511:0.99608 512:0.99608 513:0.99608 514:0.95686 515:0.99608 516:0.99608 517:0.99608 518:0.99608 519:0.99608 520:0.95294 521:0.55686 522:0.23137 523:0.1098 538:0.019608 539:0.15294 540:0.48627 541:0.52549 542:0.36863 543:0.55294 544:0.13725 545:0.027451 546:0.027451 547:0.11765 548:0.023529 
0 4.204580469388268 0 0 267:0.16078 268:0.55294 269:0.89804 270:0.99216 271:1 272:0.99216 273:0.99216 274:0.54902 293:0.32157 294:0.66275 295:0.99216 296:0.98824 297:0.81569 298:0.76863 299:0.79608 300:0.98824 301:0.98824 302:0.7451 319:0.18824 320:0.62745 321:0.94118 322:0.98824 323:0.65882 324:0.36471 325:0.05098 327:0.027451 328:0.58431 329:0.98824 330:0.89412 346:0.39608 347:0.9451 348:0.98824 349:0.83922 350:0.35294 356:0.22353 357:0.98824 358:0.98824 371:0.11373 372:0.84706 373:0.99216 374:0.99216 375:0.44706 384:0.47059 385:0.99216 386:0.79608 398:0.59216 399:0.84706 400:0.83922 401:0.61961 402:0.32941 403:0.14902 411:0.37255 412:0.88235 413:0.98824 414:0.69412 424:0.22353 425:0.48235 426:0.96471 427:0.76078 428:0.07451 439:0.69804 440:0.98824 441:0.72941 442:0.16863 451:0.29804 452:0.95294 453:0.98824 454:0.98824 455:0.05098 465:0.14902 466:0.63922 467:0.99216 468:0.8902 469:0.12157 479:0.94902 480:0.96863 481:0.39216 485:0.090196 486:0.015686 491:0.16078 492:0.84706 493:0.99216 494:0.99216 495:0.83922 496:0.14902 507:0.18431 508:0.2549 512:0.44706 513:0.91765 514:0.50196 515:0.66667 516:0.66275 517:0.66275 518:0.66275 519:0.99216 520:0.98824 521:0.66667 522:0.32941 540:0.66275 541:0.98824 542:0.98824 543:0.99216 544:0.98824 545:0.98824 546:0.83922 547:0.65882 548:0.65882 549:0.1451 568:0.07451 569:0.1098 570:0.50196 571:0.54902 572:0.45098 573:0.1098 574:0.058824 
0.3429600576698704 0 16.6783566809825 0 127:0.05098 128:0.094118 129:0.42353 130:0.70588 131:0.99216 132:1 133:0.9098 134:0.41961 135:0.019608 153:0.066667 154:0.38824 155:0.83137 156:0.98824 157:0.98824 158:0.98824 159:0.98824 160:0.81176 161:0.83922 162:0.98824 163:0.17647 179:0.05098 180:0.39608 181:0.81961 182:0.98824 183:0.99216 184:0.98824 185:0.66667 186:0.27059 187:0.27059 189:0.05098 190:0.27059 191:0.05098 206:0.2 207:0.68235 208:0.98824 209:0.98824 210:0.98824 211:0.63137 212:0.34118 213:0.05098 233:0.20784 234:0.95294 235:0.98824 236:0.98824 237:0.82353 238:0.33333 260:0.2 261:0.95294 262:1 263:0.97647 264:0.24706 287:0.17647 288:0.76078 289:0.98824 290:0.76863 291:0.32549 292:0.30588 293:0.63137 294:0.3451 315:0.39608 316:0.98824 317:0.53333 318:0.027451 319:0.40392 320:0.98824 321:0.8902 322:0.39216 330:0.07451 331:0.05098 342:0.14902 343:0.94118 344:0.98824 345:0.086275 346:0.094118 347:0.98824 348:0.98824 349:0.25882 358:0.27451 359:0.17647 370:0.18431 371:0.98824 372:0.98824 373:0.9098 374:0.7098 375:0.98824 376:0.74118 377:0.015686 386:0.47843 387:0.17647 398:0.086275 399:0.78039 400:0.90196 401:0.49412 402:1 403:0.99216 404:0.53725 405:0.019608 413:0.10196 414:0.87059 415:0.18039 429:0.2902 430:0.99216 431:0.98824 432:0.8549 433:0.1451 441:0.26667 442:0.98824 443:0.17647 457:0.4549 458:0.99216 459:0.98824 460:0.27059 469:0.63137 470:0.98824 471:0.17647 485:0.082353 486:0.99216 487:0.98824 488:0.43529 496:0.24314 497:0.92549 498:0.8902 499:0.11373 514:0.99216 515:0.98824 516:0.71765 524:0.74902 525:0.98824 526:0.71765 542:0.95686 543:0.99216 544:0.7451 545:0.019608 551:0.49804 552:1 553:0.8549 554:0.12549 570:0.2549 571:0.98824 572:0.98824 573:0.26275 578:0.31765 579:0.95686 580:0.99216 581:0.36078 598:0.027451 599:0.60392 600:0.98824 601:0.8902 602:0.18824 604:0.05098 605:0.6 606:0.94118 607:0.98824 608:0.47843 609:0.098039 627:0.035294 628:0.60392 629:0.98824 630:0.9098 631:0.81569 632:0.84314 633:0.98824 634:0.98824 635:0.65882 656:0.027451 657:0.2549 658:0.94902 659:0.99216 660:0.98824 661:0.98824 662:0.4549 663:0.0078431 
0 0 0 1.911399313705715 293:0.05098 294:0.41961 295:0.61569 296:0.66667 297:0.66275 298:0.66275 299:0.66275 300:0.42353 301:0.22353 302:0.05098 320:0.57647 321:0.81961 322:0.98824 323:0.98824 324:0.99216 325:0.98824 326:0.98824 327:0.98824 328:0.99216 329:0.98824 330:0.67059 331:0.18431 344:0.05098 345:0.54118 346:0.88235 347:0.88235 348:0.99216 349:0.98824 350:0.98824 351:0.98824 352:0.99216 353:0.98824 354:0.98824 355:0.98824 356:0.7451 357:0.5451 358:0.89412 359:0.7451 370:0.090196 371:0.70196 372:1 373:0.99216 374:0.99216 375:0.9451 376:0.83922 377:0.44314 378:0.44314 379:0.24706 385:0.27451 386:0.99216 387:0.7451 396:0.027451 397:0.51373 398:0.91765 399:0.98824 400:0.99216 401:0.83922 402:0.42745 403:0.18431 412:0.17647 413:0.88235 414:0.98824 415:0.84314 424:0.8 425:0.98824 426:0.98824 427:0.69412 428:0.99216 429:0.47843 439:0.49412 440:0.89804 441:0.98824 442:0.98824 443:0.83922 452:0.6 453:0.98824 454:0.98824 455:0.1098 456:0.99216 457:0.96471 458:0.39216 464:0.05098 465:0.44314 466:0.78431 467:0.97647 468:0.99216 469:0.8902 470:0.5451 471:0.1098 480:0.10196 481:0.88235 482:0.73333 483:0.05098 484:0.3098 485:0.99216 486:0.99216 487:0.99216 488:0.99608 489:0.99216 490:0.99216 491:0.99216 492:0.99608 493:0.99216 494:0.99216 495:0.99216 496:0.83922 497:0.14902 512:0.039216 513:0.42745 514:0.84314 515:0.98824 516:0.79608 517:0.98824 518:0.98824 519:0.98824 520:0.96863 521:0.76863 522:0.76863 523:0.37647 542:0.07451 543:0.21961 544:0.027451 545:0.21961 546:0.41569 547:0.21961 548:0.19608 
